  0.100000000000000E+001  0.111210345511213E+002  0.484943679675081E+000  0.290835432727546E+001  0.371365826411001E+001 -0.655108033504341E+001 -0.556051727556063E+001
  0.100000000000000E+001  0.175149259021443E+002  0.885721025780094E-001  0.108301718268748E+001  0.199083843679937E+001 -0.655108033504341E+001 -0.875746295107217E+001
  0.100000000000000E+001  0.130932432808468E+002  0.178109960877311E+001  0.201237406087198E+001  0.210835932187573E+001 -0.655108033504341E+001 -0.654662164042341E+001
  0.100000000000000E+001  0.503186348366807E+001  0.146647989406298E+001  0.278689905555972E+001  0.273464818625646E+001 -0.655108033504341E+001 -0.251593174183404E+001
  0.100000000000000E+001  0.511973806212048E+001  0.111558650031771E+001  0.150155596285327E+001  0.224058989252971E+001 -0.655108033504341E+001 -0.255986903106024E+001
  0.100000000000000E+001  0.100597900543583E+002  0.191784799420719E+001  0.178129794137465E+001  0.280973887789862E+001 -0.655108033504341E+001 -0.502989502717913E+001
  0.100000000000000E+001  0.946937711747234E+001  0.115068167205255E+001  0.120434731238697E+001  0.346203707219490E+001 -0.655108033504341E+001 -0.473468855873617E+001
  0.100000000000000E+001  0.523756667341399E+001  0.359191349265081E+000  0.107240299829431E+001  0.286003654345680E+001 -0.655108033504341E+001 -0.261878333670699E+001
  0.100000000000000E+001  0.905399051370550E+001  0.139427963163476E+001  0.979732049806513E+000  0.261176365950029E+001 -0.655108033504341E+001 -0.452699525685275E+001
  0.100000000000000E+001  0.860215626090051E+001  0.155386559987127E+000  0.945383883503661E+000  0.294091500696768E+001 -0.655108033504341E+001 -0.430107813045025E+001
  0.100000000000000E+001  0.527093329359711E+001  0.839013504575284E+000  0.225445624895556E+001  0.241793040266349E+001 -0.655108033504341E+001 -0.263546664679855E+001
  0.100000000000000E+001  0.552936975594248E+001  0.402644355535952E+000  0.183508445398150E+001  0.254418635224590E+001 -0.655108033504341E+001 -0.276468487797124E+001
  0.100000000000000E+001  0.787561356565405E+001  0.420337762665473E+000  0.268629686815168E+001  0.320749724022152E+001 -0.655108033504341E+001 -0.393780678282703E+001
  0.100000000000000E+001  0.559761846070124E+001  0.568456749358234E+000  0.258862011893430E+001  0.352646098076044E+001 -0.655108033504341E+001 -0.279880923035062E+001
  0.100000000000000E+001  0.586997504707174E+001  0.625965464585411E+000  0.195752359423858E+001  0.236473681360201E+001 -0.655108033504341E+001 -0.293498752353587E+001
  0.100000000000000E+001  0.745848209329473E+001  0.113847137512169E+001  0.288527138047723E+001  0.385076413592270E+001 -0.655108033504341E+001 -0.372924104664736E+001
  0.100000000000000E+001  0.658888529187569E+001  0.763180148525757E+000  0.212555500262700E+001  0.231321236623751E+001 -0.655108033504341E+001 -0.329444264593784E+001
  0.100000000000000E+001  0.722570209361411E+001  0.861505056527547E+000  0.292188069910414E+001  0.282875273431710E+001 -0.655108033504341E+001 -0.361285104680705E+001
  0.100000000000000E+001  0.711659923377094E+001  0.584549135289681E+000  0.275701288930527E+001  0.297409153876062E+001 -0.655108033504341E+001 -0.355829961688547E+001
  0.100000000000000E+001  0.671642854922198E+001  0.139634221308697E+001  0.195138817679186E+001  0.363373521138011E+001 -0.655108033504341E+001 -0.335821427461099E+001
  0.100000000000000E+001  0.692466568422909E+001  0.101741066455121E+001  0.954752542069287E+000  0.233287641855205E+001 -0.655108033504341E+001 -0.346233284211455E+001
  0.100000000000000E+001  0.691667403882567E+001  0.129658124040245E+001  0.165407559863899E+001  0.355347074289080E+001 -0.655108033504341E+001 -0.345833701941284E+001
  0.100000000000000E+001  0.687381243569474E+001  0.111210107568459E+001  0.246940877999354E+001  0.235687590505584E+001 -0.655108033504341E+001 -0.343690621784737E+001
  0.100000000000000E+001  0.502297933012618E+001  0.131970070278977E+001  0.222027946478439E+001  0.236466498081290E+001 -0.655108033504341E+001 -0.251148966506309E+001
  0.100000000000000E+001  0.497797731101801E+001  0.549255641801848E+000  0.952380113904256E+000  0.284338612662470E+001 -0.655108033504341E+001 -0.248898865550900E+001
  0.100000000000000E+001  0.494088726523044E+001  0.707424431617193E+000  0.117650237876097E+001  0.234798324355426E+001 -0.655108033504341E+001 -0.247044363261522E+001
  0.100000000000000E+001  0.493655405450789E+001  0.234662605292870E+000  0.162689973402781E+001  0.292679594296282E+001 -0.655108033504341E+001 -0.246827702725395E+001
  0.100000000000000E+001  0.491459733469363E+001  0.983555791003004E+000  0.113994124733815E+001  0.236886415533436E+001 -0.655108033504341E+001 -0.245729866734681E+001
  0.100000000000000E+001  0.488175709136017E+001  0.163834818665209E+001  0.241013767840972E+001  0.263888497500463E+001 -0.655108033504341E+001 -0.244087854568008E+001
  0.100000000000000E+001  0.464943002790619E+001  0.138797428806041E+001  0.246473884148221E+001  0.364157296185819E+001 -0.655108033504341E+001 -0.232471501395310E+001
  0.100000000000000E+001  0.454945487646578E+001  0.173089829913845E+001  0.246236296472140E+001  0.291724107099810E+001 -0.655108033504341E+001 -0.227472743823289E+001
  0.100000000000000E+001  0.450487589567471E+001  0.143051707883532E+001  0.144392524780734E+001  0.263608941361271E+001 -0.655108033504341E+001 -0.225243794783735E+001
  0.100000000000000E+001  0.440965182648866E+001  0.965088734712295E+000  0.128550006873442E+001  0.232788554584137E+001 -0.655108033504341E+001 -0.220482591324433E+001
  0.100000000000000E+001  0.436728149313419E+001  0.151072724879892E+001  0.156349272022666E+001  0.277002170252414E+001 -0.655108033504341E+001 -0.218364074656709E+001
  0.100000000000000E+001  0.431667784386484E+001  0.407971930132441E+000  0.179225939197936E+001  0.263727721125663E+001 -0.655108033504341E+001 -0.215833892193242E+001
  0.100000000000000E+001  0.429003069956755E+001  0.963111124272086E+000  0.102394270193133E+001  0.268014807936005E+001 -0.655108033504341E+001 -0.214501534978377E+001
  0.100000000000000E+001  0.422452997985891E+001  0.157564612346277E+001  0.286109289796579E+001  0.320679090143373E+001 -0.655108033504341E+001 -0.211226498992946E+001
  0.100000000000000E+001  0.422162017312554E+001  0.970522010369481E+000  0.252942538879003E+001  0.260700978577423E+001 -0.655108033504341E+001 -0.211081008656277E+001
  0.100000000000000E+001  0.419961480513353E+001  0.580627229858442E+000  0.239446547832575E+001  0.283322537137644E+001 -0.655108033504341E+001 -0.209980740256677E+001
  0.100000000000000E+001  0.415686721937889E+001  0.158964691218598E+001  0.277613136376061E+001  0.296556920198199E+001 -0.655108033504341E+001 -0.207843360968944E+001
  0.100000000000000E+001  0.410771678541990E+001  0.126618525567024E+001  0.139118330827475E+001  0.311437175200398E+001 -0.655108033504341E+001 -0.205385839270995E+001
  0.100000000000000E+001  0.406086959854157E+001  0.132095207185940E+001  0.172655191705446E+001  0.237372843216373E+001 -0.655108033504341E+001 -0.203043479927079E+001
  0.100000000000000E+001  0.400217408041582E+001  0.168389335032886E+001  0.210945277418832E+001  0.291317305677225E+001 -0.655108033504341E+001 -0.200108704020791E+001
  0.100000000000000E+001  0.394052226210448E+001  0.142524481927970E+001  0.249948757420391E+001  0.355861155630324E+001 -0.655108033504341E+001 -0.197026113105224E+001
  0.100000000000000E+001  0.385025827367105E+001  0.453876759917820E+000  0.221674686563317E+001  0.293595293252614E+001 -0.655108033504341E+001 -0.192512913683553E+001
  0.100000000000000E+001  0.382469313585643E+001  0.163049684684122E+001  0.269788172310754E+001  0.312055198963888E+001 -0.655108033504341E+001 -0.191234656792822E+001
  0.100000000000000E+001  0.376647367699327E+001  0.604860229787110E+000  0.182683477389346E+001  0.248403805369956E+001 -0.655108033504341E+001 -0.188323683849664E+001
  0.100000000000000E+001  0.373647809120601E+001  0.818214501327442E+000  0.230382732678246E+001  0.256471284348763E+001 -0.655108033504341E+001 -0.186823904560301E+001
  0.100000000000000E+001  0.363319725462959E+001  0.881229938335172E+000  0.136870313707691E+001  0.236345395754756E+001 -0.655108033504341E+001 -0.181659862731480E+001
  0.100000000000000E+001  0.358131713582549E+001  0.132480689879294E+001  0.287752244058731E+001  0.342971893268765E+001 -0.655108033504341E+001 -0.179065856791275E+001
  0.100000000000000E+001  0.345394145895806E+001  0.156275484095082E+001  0.273829402110425E+001  0.321473260389067E+001 -0.655108033504341E+001 -0.172697072947903E+001
  0.100000000000000E+001  0.340045763550172E+001  0.661331889045113E+000  0.219770938846147E+001  0.264452911700356E+001 -0.655108033504341E+001 -0.170022881775086E+001
  0.100000000000000E+001  0.325547423924503E+001  0.157937676458179E+001  0.196080536391451E+001  0.305795783033928E+001 -0.655108033504341E+001 -0.162773711962252E+001
  0.100000000000000E+001  0.313781100723530E+001  0.495688069440003E+000  0.158920945282578E+001  0.330592240679014E+001 -0.655108033504341E+001 -0.156890550361765E+001
  0.100000000000000E+001  0.313275274789671E+001  0.144966569963214E+001  0.205431954367296E+001  0.254420757793392E+001 -0.655108033504341E+001 -0.156637637394836E+001
  0.100000000000000E+001  0.310562615984364E+001  0.411080817703126E+000  0.155901551081831E+001  0.275042495956348E+001 -0.655108033504341E+001 -0.155281307992182E+001
  0.100000000000000E+001  0.310504803385644E+001  0.105049437907565E+001  0.246194298176525E+001  0.261949992877569E+001 -0.655108033504341E+001 -0.155252401692822E+001
  0.100000000000000E+001  0.309258810554165E+001  0.110466525823245E+001  0.244792813636155E+001  0.362662277921206E+001 -0.655108033504341E+001 -0.154629405277082E+001
  0.100000000000000E+001  0.309103184353953E+001  0.706584299532942E+000  0.161916023060680E+001  0.243406161519178E+001 -0.655108033504341E+001 -0.154551592176976E+001
  0.100000000000000E+001  0.306523654556693E+001  0.100612918190478E+001  0.277474799838549E+001  0.298431704690010E+001 -0.655108033504341E+001 -0.153261827278346E+001
  0.100000000000000E+001  0.306361900542810E+001  0.110805268438512E+001  0.133504634103490E+001  0.250450932410723E+001 -0.655108033504341E+001 -0.153180950271405E+001
  0.100000000000000E+001  0.303505874554725E+001  0.143520047390094E+001  0.171562824060862E+001  0.309974797640561E+001 -0.655108033504341E+001 -0.151752937277362E+001
  0.100000000000000E+001  0.302867485691629E+001  0.789918076703445E+000  0.267298771160960E+001  0.332242340211160E+001 -0.655108033504341E+001 -0.151433742845814E+001
  0.100000000000000E+001  0.301424386927161E+001  0.803640956365671E+000  0.177468842098584E+001  0.241400314956904E+001 -0.655108033504341E+001 -0.150712193463581E+001
  0.100000000000000E+001  0.295324373409429E+001  0.868812901880753E+000  0.245944215485520E+001  0.358372385858365E+001 -0.655108033504341E+001 -0.147662186704714E+001
  0.100000000000000E+001  0.293849393462588E+001  0.965372906010779E+000  0.175615605983228E+001  0.237809574516607E+001 -0.655108033504341E+001 -0.146924696731294E+001
  0.100000000000000E+001  0.288956718144536E+001  0.441842766708865E+000  0.197509768376850E+001  0.288893191253534E+001 -0.655108033504341E+001 -0.144478359072268E+001
  0.100000000000000E+001  0.286635238137497E+001  0.122230872749196E+001  0.138391012174868E+001  0.296257797204824E+001 -0.655108033504341E+001 -0.143317619068749E+001
  0.100000000000000E+001  0.281736896418136E+001  0.909004463002070E+000  0.118881067851078E+001  0.296004477131713E+001 -0.655108033504341E+001 -0.140868448209068E+001
  0.100000000000000E+001  0.279185004992890E+001  0.932220058047712E+000  0.172569079913511E+001  0.239112834009356E+001 -0.655108033504341E+001 -0.139592502496445E+001
  0.100000000000000E+001  0.278068506273938E+001  0.707006363181541E+000  0.116081554714076E+001  0.268170247779989E+001 -0.655108033504341E+001 -0.139034253136969E+001
  0.100000000000000E+001  0.258523333423758E+001  0.146561756519673E+001  0.173775022656612E+001  0.283699879266770E+001 -0.655108033504341E+001 -0.129261666711879E+001
  0.100000000000000E+001  0.257898001138498E+001  0.153146636053748E+001  0.195017802002656E+001  0.303199130981095E+001 -0.655108033504341E+001 -0.128949000569249E+001
  0.100000000000000E+001  0.251607304359038E+001  0.938631106302817E+000  0.274784351869578E+001  0.324002453404491E+001 -0.655108033504341E+001 -0.125803652179519E+001
  0.100000000000000E+001  0.246472754758392E+001  0.463299080904374E+000  0.204828196767064E+001  0.309162970828674E+001 -0.655108033504341E+001 -0.123236377379196E+001
  0.100000000000000E+001  0.242969895621550E+001  0.123449069862944E+001  0.230650469071684E+001  0.257623803880744E+001 -0.655108033504341E+001 -0.121484947810775E+001
  0.100000000000000E+001  0.242631783628320E+001  0.518206696218108E+000  0.210773755822051E+001  0.291463531296060E+001 -0.655108033504341E+001 -0.121315891814160E+001
  0.100000000000000E+001  0.240854861278283E+001  0.858999483271571E+000  0.246468186571619E+001  0.351877928997745E+001 -0.655108033504341E+001 -0.120427430639141E+001
  0.100000000000000E+001  0.240349324586286E+001  0.693900269893730E+000  0.202118862472159E+001  0.349202038453110E+001 -0.655108033504341E+001 -0.120174662293143E+001
  0.100000000000000E+001  0.238176964023721E+001  0.980626712952948E+000  0.142238333458123E+001  0.319910831026396E+001 -0.655108033504341E+001 -0.119088482011861E+001
  0.100000000000000E+001  0.237515747273864E+001  0.583152514239149E+000  0.201282564615137E+001  0.272349029335005E+001 -0.655108033504341E+001 -0.118757873636932E+001
  0.100000000000000E+001  0.229136170810277E+001  0.486439947125830E+000  0.163401522531456E+001  0.319069334323471E+001 -0.655108033504341E+001 -0.114568085405138E+001
  0.100000000000000E+001  0.222271596145604E+001  0.557523740053296E+000  0.166430698456807E+001  0.328514841189704E+001 -0.655108033504341E+001 -0.111135798072802E+001
  0.100000000000000E+001  0.221729998062975E+001  0.526510668334555E+000  0.200196945038159E+001  0.330212932715700E+001 -0.655108033504341E+001 -0.110864999031487E+001
  0.100000000000000E+001  0.218111962392817E+001  0.138594041449001E+001  0.165740924874808E+001  0.290646281263461E+001 -0.655108033504341E+001 -0.109055981196408E+001
  0.100000000000000E+001  0.213174708768140E+001  0.737216530457078E+000  0.229856970095578E+001  0.346595867822088E+001 -0.655108033504341E+001 -0.106587354384070E+001
  0.100000000000000E+001  0.213140782262594E+001  0.139819524407733E+001  0.169674184630821E+001  0.276747175900115E+001 -0.655108033504341E+001 -0.106570391131297E+001
  0.100000000000000E+001  0.212806012336859E+001  0.660266903586331E+000  0.223244564954134E+001  0.281671627534156E+001 -0.655108033504341E+001 -0.106403006168430E+001
  0.100000000000000E+001  0.210848737249700E+001  0.990628076744354E+000  0.255730010894791E+001  0.349328800370296E+001 -0.655108033504341E+001 -0.105424368624850E+001
  0.100000000000000E+001  0.206722250804869E+001  0.152761377090456E+001  0.247986262258732E+001  0.304026546727249E+001 -0.655108033504341E+001 -0.103361125402435E+001
  0.100000000000000E+001  0.200436313168562E+001  0.108212351485591E+001  0.248728811661002E+001  0.351894794470824E+001 -0.655108033504341E+001 -0.100218156584281E+001
  0.100000000000000E+001  0.197959589831136E+001  0.561256617708698E+000  0.215369393716993E+001  0.325238690759037E+001 -0.655108033504341E+001 -0.989797949155678E+000
  0.100000000000000E+001  0.192877323001593E+001  0.112353458119245E+001  0.265878454857352E+001  0.292076208556485E+001 -0.655108033504341E+001 -0.964386615007966E+000
  0.100000000000000E+001  0.192146333250107E+001  0.540916047525164E+000  0.188412505956965E+001  0.278255427426608E+001 -0.655108033504341E+001 -0.960731666250537E+000
  0.100000000000000E+001  0.189901268150460E+001  0.660725282050518E+000  0.154375717909611E+001  0.324768537132414E+001 -0.655108033504341E+001 -0.949506340752297E+000
  0.100000000000000E+001  0.184356246488221E+001  0.111117044239194E+001  0.156622886438095E+001  0.252124840501789E+001 -0.655108033504341E+001 -0.921781232441103E+000
  0.100000000000000E+001  0.184242137664588E+001  0.101485330883026E+001  0.130416855243739E+001  0.281441837947116E+001 -0.655108033504341E+001 -0.921210688322941E+000
  0.100000000000000E+001  0.183551719441838E+001  0.641493689284331E+000  0.224638989123272E+001  0.291384048147534E+001 -0.655108033504341E+001 -0.917758597209192E+000
  0.100000000000000E+001  0.182607673556496E+001  0.110194315374834E+001  0.225684483386834E+001  0.351881644391429E+001 -0.655108033504341E+001 -0.913038367782480E+000
  0.100000000000000E+001  0.179820640614416E+001  0.115545747989766E+001  0.219750540022665E+001  0.349371373955485E+001 -0.655108033504341E+001 -0.899103203072078E+000
  0.100000000000000E+001  0.178411150763145E+001  0.110617440651725E+001  0.190246804787681E+001  0.249124941966487E+001 -0.655108033504341E+001 -0.892055753815725E+000
  0.100000000000000E+001  0.178378858160241E+001  0.745442707815415E+000  0.207974808345244E+001  0.346052727504344E+001 -0.655108033504341E+001 -0.891894290801205E+000
  0.100000000000000E+001  0.177488557654139E+001  0.113456251167072E+001  0.268301354656004E+001  0.336476315255912E+001 -0.655108033504341E+001 -0.887442788270695E+000
  0.100000000000000E+001  0.175941239535412E+001  0.145810570894213E+001  0.255923532989630E+001  0.304668835866130E+001 -0.655108033504341E+001 -0.879706197677061E+000
  0.100000000000000E+001  0.172258541771868E+001  0.951478114740373E+000  0.140034813736905E+001  0.257442200561576E+001 -0.655108033504341E+001 -0.861292708859338E+000
  0.100000000000000E+001  0.171589681210150E+001  0.511838548080537E+000  0.159851838305545E+001  0.283082752582036E+001 -0.655108033504341E+001 -0.857948406050747E+000
  0.100000000000000E+001  0.168121425237895E+001  0.861980746377194E+000  0.231225867390500E+001  0.348485780267933E+001 -0.655108033504341E+001 -0.840607126189475E+000
  0.100000000000000E+001  0.162777802081354E+001  0.657006055962214E+000  0.232297920787580E+001  0.320185290302453E+001 -0.655108033504341E+001 -0.813889010406768E+000
  0.100000000000000E+001  0.162368576905319E+001  0.523174982380788E+000  0.156041935060512E+001  0.303850307589194E+001 -0.655108033504341E+001 -0.811842884526593E+000
  0.100000000000000E+001  0.162154675611541E+001  0.791058697563258E+000  0.132831897151597E+001  0.300744274971644E+001 -0.655108033504341E+001 -0.810773378057703E+000
  0.100000000000000E+001  0.159155400238652E+001  0.894461730816527E+000  0.188325741740752E+001  0.252389064164895E+001 -0.655108033504341E+001 -0.795777001193260E+000
  0.100000000000000E+001  0.158852319476112E+001  0.121403156162428E+001  0.154157651350866E+001  0.268021281316379E+001 -0.655108033504341E+001 -0.794261597380558E+000
  0.100000000000000E+001  0.158535633559500E+001  0.117445756213131E+001  0.271684981848687E+001  0.316049671682027E+001 -0.655108033504341E+001 -0.792678167797497E+000
  0.100000000000000E+001  0.155985113979184E+001  0.923529375203920E+000  0.248094315385192E+001  0.343365879193115E+001 -0.655108033504341E+001 -0.779925569895920E+000
  0.100000000000000E+001  0.155177079446204E+001  0.110424871353491E+001  0.261272747798806E+001  0.292670960953765E+001 -0.655108033504341E+001 -0.775885397231021E+000
  0.100000000000000E+001  0.152798077746546E+001  0.122142919629677E+001  0.195499049112658E+001  0.255325380579937E+001 -0.655108033504341E+001 -0.763990388732729E+000
  0.100000000000000E+001  0.152037164878437E+001  0.137797000147707E+001  0.176904840433528E+001  0.295896930161991E+001 -0.655108033504341E+001 -0.760185824392182E+000
  0.100000000000000E+001  0.150558871126864E+001  0.588651618917453E+000  0.174573622958261E+001  0.272611479321461E+001 -0.655108033504341E+001 -0.752794355634321E+000
  0.100000000000000E+001  0.146569031258017E+001  0.584978453859182E+000  0.211549971396928E+001  0.320014417718091E+001 -0.655108033504341E+001 -0.732845156290086E+000
  0.100000000000000E+001  0.145671035624139E+001  0.655752995126527E+000  0.208740729962302E+001  0.280022520146845E+001 -0.655108033504341E+001 -0.728355178120693E+000
  0.100000000000000E+001  0.144124174857044E+001  0.794203761790364E+000  0.235939849901768E+001  0.287266784851481E+001 -0.655108033504341E+001 -0.720620874285219E+000
  0.100000000000000E+001  0.143912902023831E+001  0.558982944755782E+000  0.193060613441402E+001  0.321695828596489E+001 -0.655108033504341E+001 -0.719564510119154E+000
  0.100000000000000E+001  0.138257073694926E+001  0.112693840451083E+001  0.155615414964444E+001  0.310680418586023E+001 -0.655108033504341E+001 -0.691285368474628E+000
  0.100000000000000E+001  0.134106381824051E+001  0.887112281487226E+000  0.242711162394999E+001  0.341062968662633E+001 -0.655108033504341E+001 -0.670531909120252E+000
  0.100000000000000E+001  0.121138334655277E+001  0.615771989155531E+000  0.160246514213756E+001  0.273792252798234E+001 -0.655108033504341E+001 -0.605691673276385E+000
  0.100000000000000E+001  0.118867497333138E+001  0.117811095505603E+001  0.198500869597936E+001  0.257767249820569E+001 -0.655108033504341E+001 -0.594337486665691E+000
  0.100000000000000E+001  0.118031033580988E+001  0.135003360745059E+001  0.194631822408376E+001  0.269955401017548E+001 -0.655108033504341E+001 -0.590155167904938E+000
  0.100000000000000E+001  0.114572159049186E+001  0.130365106605957E+001  0.255137107466342E+001  0.295376398490891E+001 -0.655108033504341E+001 -0.572860795245931E+000
  0.100000000000000E+001  0.113660411715234E+001  0.633413573306746E+000  0.193703847664979E+001  0.327909590492982E+001 -0.655108033504341E+001 -0.568302058576168E+000
  0.100000000000000E+001  0.113212822585860E+001  0.130791274436328E+001  0.228336330081203E+001  0.334080498448790E+001 -0.655108033504341E+001 -0.566064112929297E+000
  0.100000000000000E+001  0.109230430573058E+001  0.132749881956018E+001  0.226194174386485E+001  0.274220091136631E+001 -0.655108033504341E+001 -0.546152152865289E+000
  0.100000000000000E+001  0.109135737277787E+001  0.982247266611870E+000  0.172446678802099E+001  0.254540829710341E+001 -0.655108033504341E+001 -0.545678686388934E+000
  0.100000000000000E+001  0.108118520857588E+001  0.124628425038435E+001  0.256288815222852E+001  0.295040085136986E+001 -0.655108033504341E+001 -0.540592604287940E+000
  0.100000000000000E+001  0.106353936039510E+001  0.926692500402033E+000  0.147223793957268E+001  0.262911047342169E+001 -0.655108033504341E+001 -0.531769680197548E+000
  0.100000000000000E+001  0.104681438721843E+001  0.138949086352246E+001  0.204346055019209E+001  0.313906088927779E+001 -0.655108033504341E+001 -0.523407193609212E+000
  0.100000000000000E+001  0.101865834382787E+001  0.794973711612695E+000  0.151595846014271E+001  0.263657394343610E+001 -0.655108033504341E+001 -0.509329171913933E+000
  0.100000000000000E+001  0.100748936043776E+001  0.101383183811179E+001  0.142302492259364E+001  0.289601472410090E+001 -0.655108033504341E+001 -0.503744680218880E+000
  0.100000000000000E+001  0.965505656422353E+000  0.587141763246562E+000  0.166367158360806E+001  0.307748715619788E+001 -0.655108033504341E+001 -0.482752828211176E+000
  0.100000000000000E+001  0.935897598370685E+000  0.137822135363696E+001  0.205520949515971E+001  0.277853579561048E+001 -0.655108033504341E+001 -0.467948799185342E+000
  0.100000000000000E+001  0.930629807760637E+000  0.793294908623486E+000  0.220905895554864E+001  0.337224944527419E+001 -0.655108033504341E+001 -0.465314903880318E+000
  0.100000000000000E+001  0.914387481005834E+000  0.654648741111669E+000  0.148365093974186E+001  0.295693012396729E+001 -0.655108033504341E+001 -0.457193740502916E+000
  0.100000000000000E+001  0.913776741029279E+000  0.140030907147330E+001  0.197696564679541E+001  0.297246299201762E+001 -0.655108033504341E+001 -0.456888370514639E+000
  0.100000000000000E+001  0.856212414277724E+000  0.114804144396553E+001  0.260446570675042E+001  0.311241927860578E+001 -0.655108033504341E+001 -0.428106207138861E+000
  0.100000000000000E+001  0.841345274528637E+000  0.132172159513535E+001  0.234459378014278E+001  0.282532849671320E+001 -0.655108033504341E+001 -0.420672637264318E+000
  0.100000000000000E+001  0.841100038021189E+000  0.141866115563100E+001  0.232293149059991E+001  0.301578347954572E+001 -0.655108033504341E+001 -0.420550019010594E+000
  0.100000000000000E+001  0.793559113669584E+000  0.743773902553454E+000  0.220333282129250E+001  0.330129351627264E+001 -0.655108033504341E+001 -0.396779556834791E+000
  0.100000000000000E+001  0.714672841162438E+000  0.832775244263125E+000  0.188254672510074E+001  0.333885621799649E+001 -0.655108033504341E+001 -0.357336420581218E+000
  0.100000000000000E+001  0.695435803391881E+000  0.128040724113899E+001  0.206435149151017E+001  0.270604630798912E+001 -0.655108033504341E+001 -0.347717901695939E+000
  0.100000000000000E+001  0.686887972751965E+000  0.830886230899201E+000  0.231968469263807E+001  0.331314960118145E+001 -0.655108033504341E+001 -0.343443986375982E+000
  0.100000000000000E+001  0.686311673508801E+000  0.104239169165761E+001  0.170469104450740E+001  0.260467149767223E+001 -0.655108033504341E+001 -0.343155836754400E+000
  0.100000000000000E+001  0.681183456225275E+000  0.693382189823259E+000  0.175228206898289E+001  0.273182083674794E+001 -0.655108033504341E+001 -0.340591728112637E+000
  0.100000000000000E+001  0.679826196877325E+000  0.113378483435388E+001  0.233280393703143E+001  0.338099700735007E+001 -0.655108033504341E+001 -0.339913098438661E+000
  0.100000000000000E+001  0.679430345244691E+000  0.113645538443911E+001  0.218636977706366E+001  0.338042860484238E+001 -0.655108033504341E+001 -0.339715172622345E+000
  0.100000000000000E+001  0.646506905683314E+000  0.919073567314265E+000  0.231492756784033E+001  0.283194595664590E+001 -0.655108033504341E+001 -0.323253452841656E+000
  0.100000000000000E+001  0.645413202280510E+000  0.784352085062415E+000  0.147849064872512E+001  0.300979330173978E+001 -0.655108033504341E+001 -0.322706601140254E+000
  0.100000000000000E+001  0.636304759278973E+000  0.720861180321663E+000  0.150598866708124E+001  0.279402783563351E+001 -0.655108033504341E+001 -0.318152379639486E+000
  0.100000000000000E+001  0.594085372799297E+000  0.876910816960365E+000  0.237839561026217E+001  0.295872846788709E+001 -0.655108033504341E+001 -0.297042686399648E+000
  0.100000000000000E+001  0.554930143387574E+000  0.998428786476065E+000  0.151057499107966E+001  0.298431494057417E+001 -0.655108033504341E+001 -0.277465071693786E+000
  0.100000000000000E+001  0.523668737050999E+000  0.925022441231398E+000  0.244648248733435E+001  0.303785073717344E+001 -0.655108033504341E+001 -0.261834368525498E+000
  0.100000000000000E+001  0.520003416284400E+000  0.914407676970914E+000  0.153321552893746E+001  0.306590527889352E+001 -0.655108033504341E+001 -0.260001708142199E+000
  0.100000000000000E+001  0.519732481012264E+000  0.867325270164762E+000  0.159032510410734E+001  0.313952784720605E+001 -0.655108033504341E+001 -0.259866240506131E+000
  0.100000000000000E+001  0.518552534566918E+000  0.125316255664014E+001  0.173730240231814E+001  0.288316857289798E+001 -0.655108033504341E+001 -0.259276267283458E+000
  0.100000000000000E+001  0.495318400622756E+000  0.135185132162505E+001  0.201680315674702E+001  0.304771749386020E+001 -0.655108033504341E+001 -0.247659200311377E+000
  0.100000000000000E+001  0.493533989858236E+000  0.105553390400429E+001  0.152889722499537E+001  0.280740914661606E+001 -0.655108033504341E+001 -0.246766994929117E+000
  0.100000000000000E+001  0.480493284025840E+000  0.104775281886947E+001  0.170169452818497E+001  0.317837617487867E+001 -0.655108033504341E+001 -0.240246642012920E+000
  0.100000000000000E+001  0.446750821584031E+000  0.837273981368332E+000  0.224824276454843E+001  0.287708604859339E+001 -0.655108033504341E+001 -0.223375410792015E+000
  0.100000000000000E+001  0.432825969666681E+000  0.119742171626735E+001  0.175191348908252E+001  0.272908035422962E+001 -0.655108033504341E+001 -0.216412984833339E+000
  0.100000000000000E+001  0.418824619450538E+000  0.689851290992190E+000  0.194983262662159E+001  0.284886423417680E+001 -0.655108033504341E+001 -0.209412309725268E+000
  0.100000000000000E+001  0.400367777226496E+000  0.636317284217854E+000  0.183624356358088E+001  0.293080893404552E+001 -0.655108033504341E+001 -0.200183888613247E+000
  0.100000000000000E+001  0.384763596918495E+000  0.778893731128685E+000  0.149983571059100E+001  0.285036189051307E+001 -0.655108033504341E+001 -0.192381798459246E+000
  0.100000000000000E+001  0.383290659729008E+000  0.974659698116742E+000  0.149895939615909E+001  0.287550442686330E+001 -0.655108033504341E+001 -0.191645329864504E+000
  0.100000000000000E+001  0.368234913533266E+000  0.931988823458464E+000  0.209054599099357E+001  0.335922517360200E+001 -0.655108033504341E+001 -0.184117456766632E+000
  0.100000000000000E+001  0.292069528628778E+000  0.122584473560808E+001  0.244336372282168E+001  0.320655408044325E+001 -0.655108033504341E+001 -0.146034764314388E+000
  0.100000000000000E+001  0.291230444739973E+000  0.117512057272418E+001  0.250023097602408E+001  0.312069863015220E+001 -0.655108033504341E+001 -0.145615222369986E+000
  0.100000000000000E+001  0.289547715788634E+000  0.110582730564556E+001  0.209449525048256E+001  0.269705637852273E+001 -0.655108033504341E+001 -0.144773857894316E+000
  0.100000000000000E+001  0.240595026748615E+000  0.116027232401391E+001  0.186579911071575E+001  0.318542986498953E+001 -0.655108033504341E+001 -0.120297513374306E+000
  0.100000000000000E+001  0.231395698721595E+000  0.122112354887625E+001  0.243417001578483E+001  0.298581509888954E+001 -0.655108033504341E+001 -0.115697849360797E+000
  0.100000000000000E+001  0.217609159596272E+000  0.106821203253652E+001  0.248451133638788E+001  0.313530550792757E+001 -0.655108033504341E+001 -0.108804579798135E+000
  0.100000000000000E+001  0.207827089652509E+000  0.859557003068485E+000  0.160550359853092E+001  0.309213464949858E+001 -0.655108033504341E+001 -0.103913544826254E+000
  0.100000000000000E+001  0.193961164644836E+000  0.118619280094670E+001  0.225220753705385E+001  0.328887842471255E+001 -0.655108033504341E+001 -0.969805823224170E-001
  0.100000000000000E+001  0.190398967660196E+000  0.101637575339972E+001  0.199352262421793E+001  0.267843489279284E+001 -0.655108033504341E+001 -0.951994838300968E-001
  0.100000000000000E+001  0.168887090904724E+000  0.104335633350402E+001  0.228199932744786E+001  0.332817847688930E+001 -0.655108033504341E+001 -0.844435454523608E-001
  0.100000000000000E+001  0.154233428123799E+000  0.100382533485850E+001  0.221168405327802E+001  0.333633415084738E+001 -0.655108033504341E+001 -0.771167140618985E-001
  0.100000000000000E+001  0.143923264376754E+000  0.891613425189888E+000  0.157404925928916E+001  0.275479616719121E+001 -0.655108033504341E+001 -0.719616321883761E-001
  0.100000000000000E+001  0.138189896551580E+000  0.115304321936209E+001  0.170276641674296E+001  0.298315621402124E+001 -0.655108033504341E+001 -0.690949482757891E-001
  0.100000000000000E+001  0.118681066024477E+000  0.951774032774992E+000  0.224025845315414E+001  0.331779163335445E+001 -0.655108033504341E+001 -0.593405330122379E-001
  0.100000000000000E+001  0.105643440419048E+000  0.931534341504614E+000  0.190444152318982E+001  0.268593595936111E+001 -0.655108033504341E+001 -0.528217202095232E-001
  0.100000000000000E+001  0.101493446908222E+000  0.982823570627650E+000  0.221771163233484E+001  0.280368677433831E+001 -0.655108033504341E+001 -0.507467234541105E-001
  0.100000000000000E+001  0.435555040458802E-001  0.107456627132202E+001  0.183508903434718E+001  0.268987011255474E+001 -0.655108033504341E+001 -0.217777520229395E-001
  0.100000000000000E+001  0.350067091416832E-001  0.784081269803068E+000  0.180985661914352E+001  0.276563068987644E+001 -0.655108033504341E+001 -0.175033545708405E-001
  0.100000000000000E+001 -0.666110948732879E-002  0.883377946624584E+000  0.230470660008328E+001  0.319297912900391E+001 -0.655108033504341E+001  0.333055474366517E-002
  0.100000000000000E+001 -0.823276303423626E-002  0.118869604602702E+001  0.242258265967998E+001  0.312111834763758E+001 -0.655108033504341E+001  0.411638151711913E-002
  0.100000000000000E+001 -0.163069623551610E-001  0.704043783742619E+000  0.172668049269296E+001  0.294026490780361E+001 -0.655108033504341E+001  0.815348117758141E-002
  0.100000000000000E+001 -0.252461937008661E-001  0.118399725512655E+001  0.212730301116508E+001  0.324019388527193E+001 -0.655108033504341E+001  0.126230968504341E-001
  0.100000000000000E+001 -0.389875448876076E-001  0.114290898531462E+001  0.178615866788112E+001  0.307349881785109E+001 -0.655108033504341E+001  0.194937724438050E-001
  0.100000000000000E+001 -0.805723854418723E-001  0.117089960749803E+001  0.196947165426134E+001  0.275189015882113E+001 -0.655108033504341E+001  0.402861927209373E-001
  0.100000000000000E+001 -0.829149915887193E-001  0.876273546472721E+000  0.222370522301344E+001  0.323834340224778E+001 -0.655108033504341E+001  0.414574957943609E-001
  0.100000000000000E+001 -0.950835695812646E-001  0.124858071950086E+001  0.215719337947649E+001  0.316137792651451E+001 -0.655108033504341E+001  0.475417847906335E-001
  0.100000000000000E+001 -0.958694639717432E-001  0.120137088532449E+001  0.238630645229813E+001  0.312415284598334E+001 -0.655108033504341E+001  0.479347319858726E-001
  0.100000000000000E+001 -0.112983087124993E+000  0.109863972497299E+001  0.241473495039473E+001  0.306812004896770E+001 -0.655108033504341E+001  0.564915435624975E-001
  0.100000000000000E+001 -0.124106048091264E+000  0.104135330653149E+001  0.187834942771441E+001  0.320976855197723E+001 -0.655108033504341E+001  0.620530240456330E-001
  0.100000000000000E+001 -0.124845280067769E+000  0.110240284209474E+001  0.215986318329954E+001  0.278759257840348E+001 -0.655108033504341E+001  0.624226400338855E-001
  0.100000000000000E+001 -0.146959247619588E+000  0.782005091361928E+000  0.205197313864652E+001  0.290916552713263E+001 -0.655108033504341E+001  0.734796238097947E-001
  0.100000000000000E+001 -0.148991624253270E+000  0.128316333070661E+001  0.210433083644817E+001  0.304000133658140E+001 -0.655108033504341E+001  0.744958121266359E-001
  0.100000000000000E+001 -0.152444203748892E+000  0.106157164173920E+001  0.173592280090064E+001  0.275500159262975E+001 -0.655108033504341E+001  0.762221018744471E-001
  0.100000000000000E+001 -0.160667695776352E+000  0.108710906963289E+001  0.186115297948173E+001  0.272840629872021E+001 -0.655108033504341E+001  0.803338478881769E-001
  0.100000000000000E+001 -0.161583467430679E+000  0.786872474878372E+000  0.163897408668389E+001  0.291170408697118E+001 -0.655108033504341E+001  0.807917337153409E-001
  0.100000000000000E+001 -0.163493079209619E+000  0.121783871289324E+001  0.189595996491197E+001  0.302770287668009E+001 -0.655108033504341E+001  0.817465396048102E-001
  0.100000000000000E+001 -0.221803674577460E+000  0.115804026051428E+001  0.178471028565092E+001  0.287236206146152E+001 -0.655108033504341E+001  0.110901837288731E+000
  0.100000000000000E+001 -0.230342915645794E+000  0.124809470272590E+001  0.202829547033159E+001  0.288460892320983E+001 -0.655108033504341E+001  0.115171457822898E+000
  0.100000000000000E+001 -0.260822626912999E+000  0.122948766851957E+001  0.230237900554447E+001  0.305279079469059E+001 -0.655108033504341E+001  0.130411313456500E+000
  0.100000000000000E+001 -0.289668549457703E+000  0.762609457190798E+000  0.177917595184792E+001  0.305144970456319E+001 -0.655108033504341E+001  0.144834274728853E+000
  0.100000000000000E+001 -0.295173360669354E+000  0.967901338566394E+000  0.171735027460028E+001  0.276973151960869E+001 -0.655108033504341E+001  0.147586680334677E+000
  0.100000000000000E+001 -0.312876683309035E+000  0.747874587874312E+000  0.179031244772278E+001  0.297968566226908E+001 -0.655108033504341E+001  0.156438341654519E+000
  0.100000000000000E+001 -0.338032339673788E+000  0.107237896466716E+001  0.231168866635104E+001  0.319746698033547E+001 -0.655108033504341E+001  0.169016169836895E+000
  0.100000000000000E+001 -0.352660687834442E+000  0.113806606258298E+001  0.222867853871462E+001  0.320589962665854E+001 -0.655108033504341E+001  0.176330343917222E+000
  0.100000000000000E+001 -0.352853114864139E+000  0.109801437734113E+001  0.229997616210968E+001  0.294755541128962E+001 -0.655108033504341E+001  0.176426557432070E+000
  0.100000000000000E+001 -0.370278860154233E+000  0.908546155226370E+000  0.184403879619042E+001  0.316821235443010E+001 -0.655108033504341E+001  0.185139430077117E+000
  0.100000000000000E+001 -0.415007251809511E+000  0.939533557533553E+000  0.176226290274975E+001  0.309865844197917E+001 -0.655108033504341E+001  0.207503625904757E+000
  0.100000000000000E+001 -0.424265533762577E+000  0.118005464416986E+001  0.213896879211897E+001  0.287464521562579E+001 -0.655108033504341E+001  0.212132766881290E+000
  0.100000000000000E+001 -0.425702058838981E+000  0.119682710450748E+001  0.202048333267515E+001  0.286785989830092E+001 -0.655108033504341E+001  0.212851029419492E+000
  0.100000000000000E+001 -0.436872562490183E+000  0.782012998431450E+000  0.193276840969819E+001  0.308750807023179E+001 -0.655108033504341E+001  0.218436281245093E+000
  0.100000000000000E+001 -0.443794620579501E+000  0.103954987565946E+001  0.217777676079758E+001  0.286311487847883E+001 -0.655108033504341E+001  0.221897310289752E+000
  0.100000000000000E+001 -0.453538001072337E+000  0.122840002169566E+001  0.207927591049927E+001  0.301359939617198E+001 -0.655108033504341E+001  0.226769000536169E+000
  0.100000000000000E+001 -0.470858933830701E+000  0.774234190798684E+000  0.191795578378774E+001  0.302392095097771E+001 -0.655108033504341E+001  0.235429466915351E+000
  0.100000000000000E+001 -0.503637620288060E+000  0.106821557310387E+001  0.224541333868601E+001  0.318573351526687E+001 -0.655108033504341E+001  0.251818810144031E+000
  0.100000000000000E+001 -0.518579669026760E+000  0.114556090063145E+001  0.186141218075208E+001  0.292382933288694E+001 -0.655108033504341E+001  0.259289834513381E+000
  0.100000000000000E+001 -0.544289356240851E+000  0.120208159613252E+001  0.202490800781684E+001  0.299395604570242E+001 -0.655108033504341E+001  0.272144678120426E+000
  0.100000000000000E+001 -0.616498531926073E+000  0.110334173161608E+001  0.207978466057658E+001  0.315756000184449E+001 -0.655108033504341E+001  0.308249265963038E+000
  0.100000000000000E+001 -0.625603920504011E+000  0.918016366260306E+000  0.179606327012065E+001  0.306458963390997E+001 -0.655108033504341E+001  0.312801960252007E+000
  0.100000000000000E+001 -0.650882707564410E+000  0.986769443520739E+000  0.183085630758829E+001  0.282761088489805E+001 -0.655108033504341E+001  0.325441353782206E+000
  0.100000000000000E+001 -0.659928259582388E+000  0.113987544402640E+001  0.217284601247115E+001  0.310826809383579E+001 -0.655108033504341E+001  0.329964129791195E+000
  0.100000000000000E+001 -0.685027998796091E+000  0.102499088656511E+001  0.214607913508788E+001  0.290874507615253E+001 -0.655108033504341E+001  0.342513999398047E+000
  0.100000000000000E+001 -0.699767936635940E+000  0.114365292470935E+001  0.205235325840628E+001  0.307743150321943E+001 -0.655108033504341E+001  0.349883968317971E+000
  0.100000000000000E+001 -0.710241690906098E+000  0.904281280343333E+000  0.212186936416381E+001  0.300489150900423E+001 -0.655108033504341E+001  0.355120845453050E+000
  0.100000000000000E+001 -0.724963328409386E+000  0.112600130322519E+001  0.219339769347196E+001  0.306306350421811E+001 -0.655108033504341E+001  0.362481664204693E+000
  0.100000000000000E+001 -0.737045897590793E+000  0.101586454771460E+001  0.180241234860601E+001  0.291553336074170E+001 -0.655108033504341E+001  0.368522948795397E+000
  0.100000000000000E+001 -0.746450645813772E+000  0.108740542485103E+001  0.211543558446988E+001  0.312862510193017E+001 -0.655108033504341E+001  0.373225322906887E+000
  0.100000000000000E+001 -0.771071595881905E+000  0.982201489677895E+000  0.200305904900167E+001  0.313872657474931E+001 -0.655108033504341E+001  0.385535797940953E+000
  0.100000000000000E+001 -0.821543582948387E+000  0.110463532884200E+001  0.204955762638827E+001  0.292895494595244E+001 -0.655108033504341E+001  0.410771791474194E+000
  0.100000000000000E+001 -0.829505065456257E+000  0.109660313870483E+001  0.208295635167323E+001  0.293880606925522E+001 -0.655108033504341E+001  0.414752532728129E+000
  0.100000000000000E+001 -0.849848534742069E+000  0.951345820285245E+000  0.183389408709873E+001  0.295464602926702E+001 -0.655108033504341E+001  0.424924267371036E+000
  0.100000000000000E+001 -0.866308583531772E+000  0.981132047794610E+000  0.198929368313766E+001  0.289873433987092E+001 -0.655108033504341E+001  0.433154291765887E+000
  0.100000000000000E+001 -0.868133415064106E+000  0.104875753401558E+001  0.214493093664774E+001  0.306872116775242E+001 -0.655108033504341E+001  0.434066707532054E+000
  0.100000000000000E+001 -0.895831681408714E+000  0.101278636661646E+001  0.194011732043625E+001  0.290579740703315E+001 -0.655108033504341E+001  0.447915840704358E+000
  0.100000000000000E+001 -0.914690033556386E+000  0.987041434869956E+000  0.188640006033373E+001  0.294539551362541E+001 -0.655108033504341E+001  0.457345016778194E+000
  0.100000000000000E+001 -0.937153325893036E+000  0.103130106697178E+001  0.193784296542397E+001  0.300246228076692E+001 -0.655108033504341E+001  0.468576662946518E+000
