  0.100000000000000E+001  0.304509998580393E+001  0.119966066224249E+001  0.140725908714929E+001  0.252526825627579E+001 -0.655108033504341E+001 -0.152254999290197E+001
  0.100000000000000E+001  0.305841642095153E+001  0.113282570002684E+001  0.155296373685314E+001  0.330346133223842E+001 -0.655108033504341E+001 -0.152920821047576E+001
  0.100000000000000E+001  0.616744089128241E+001  0.119610569299740E+001  0.151304366268441E+001  0.347534249135505E+001 -0.655108033504341E+001 -0.308372044564120E+001
  0.100000000000000E+001  0.640545080853153E+001  0.145980567955810E+001  0.316244525223011E+001  0.310328809960699E+001 -0.655108033504341E+001 -0.320272540426576E+001
  0.100000000000000E+001  0.104169870146088E+002  0.900302592426186E+000  0.141197653611469E+001  0.193670482796126E+001 -0.655108033504341E+001 -0.520849350730442E+001
  0.100000000000000E+001  0.102106116688326E+002  0.114874233753906E+001  0.237536143701211E+001  0.403288722460861E+001 -0.655108033504341E+001 -0.510530583441632E+001
  0.100000000000000E+001  0.101498375709103E+002  0.117895911243212E+001  0.346053220452607E+001  0.331069904306209E+001 -0.655108033504341E+001 -0.507491878545516E+001
  0.100000000000000E+001  0.642526690196602E+001  0.184370301959681E+001  0.222132901704308E+001  0.301781393455691E+001 -0.655108033504341E+001 -0.321263345098301E+001
  0.100000000000000E+001  0.306308781130936E+001  0.100597854401251E+001  0.237548818370802E+001  0.363491676250697E+001 -0.655108033504341E+001 -0.153154390565468E+001
  0.100000000000000E+001  0.946604419419939E+001  0.196534712442319E+001  0.289337891723008E+001  0.299596902043264E+001 -0.655108033504341E+001 -0.473302209709969E+001
  0.100000000000000E+001  0.319845501361504E+001  0.488743920060460E+000  0.226480429991098E+001  0.319551338754148E+001 -0.655108033504341E+001 -0.159922750680752E+001
  0.100000000000000E+001  0.932786412583889E+001  0.139367592148996E+001  0.120336818801730E+001  0.219845183751414E+001 -0.655108033504341E+001 -0.466393206291944E+001
  0.100000000000000E+001  0.662559283801920E+001  0.122445294733937E+001  0.125137792112209E+001  0.325053070393299E+001 -0.655108033504341E+001 -0.331279641900960E+001
  0.100000000000000E+001  0.906330763859970E+001  0.162802961642252E+001  0.333427701365794E+001  0.340844845705710E+001 -0.655108033504341E+001 -0.453165381929985E+001
  0.100000000000000E+001  0.889095003220145E+001  0.426259352704919E-001  0.117607535742279E+001  0.284827479864083E+001 -0.655108033504341E+001 -0.444547501610072E+001
  0.100000000000000E+001  0.664007238268461E+001  0.126587750597044E+001  0.302172565665895E+001  0.370823929976746E+001 -0.655108033504341E+001 -0.332003619134230E+001
  0.100000000000000E+001  0.666493258071831E+001  0.138990158546970E+001  0.136687297891805E+001  0.232768035790720E+001 -0.655108033504341E+001 -0.333246629035915E+001
  0.100000000000000E+001  0.859356038399447E+001  0.118204198568463E+001  0.244366962678876E+001  0.224517715516743E+001 -0.655108033504341E+001 -0.429678019199723E+001
  0.100000000000000E+001  0.677076140298635E+001  0.143314769301479E+001  0.321893912569353E+001  0.339667608059393E+001 -0.655108033504341E+001 -0.338538070149317E+001
  0.100000000000000E+001  0.777836183210167E+001  0.207015539993109E+000  0.210998989035548E+001  0.343936515782864E+001 -0.655108033504341E+001 -0.388918091605084E+001
  0.100000000000000E+001  0.742765131707325E+001  0.656634139187823E+000  0.101221624081584E+001  0.222449390765947E+001 -0.655108033504341E+001 -0.371382565853663E+001
  0.100000000000000E+001  0.738942003950153E+001  0.190150427876804E+001  0.237085341288201E+001  0.311276587273811E+001 -0.655108033504341E+001 -0.369471001975076E+001
  0.100000000000000E+001  0.729003808744189E+001  0.828067214943530E+000  0.251215784208542E+001  0.388436228913419E+001 -0.655108033504341E+001 -0.364501904372094E+001
  0.100000000000000E+001  0.678465641662588E+001  0.466631582501582E+000  0.153188687765612E+001  0.357693275641355E+001 -0.655108033504341E+001 -0.339232820831294E+001
  0.100000000000000E+001  0.726874145745315E+001  0.333480989902964E+000  0.114897486310826E+001  0.240970011393722E+001 -0.655108033504341E+001 -0.363437072872657E+001
  0.100000000000000E+001  0.688733780676574E+001  0.168323801817121E+001  0.273181835666958E+001  0.266384186103557E+001 -0.655108033504341E+001 -0.344366890338287E+001
  0.100000000000000E+001  0.691170316999689E+001  0.179852242481939E+001  0.188632836830842E+001  0.289541953993536E+001 -0.655108033504341E+001 -0.345585158499844E+001
  0.100000000000000E+001  0.712363659909152E+001  0.106624682044742E+001  0.988102058711407E+000  0.230558578381339E+001 -0.655108033504341E+001 -0.356181829954576E+001
  0.100000000000000E+001  0.576462982899677E+001  0.156185085273867E+001  0.174472900684672E+001  0.325601247387052E+001 -0.655108033504341E+001 -0.288231491449838E+001
  0.100000000000000E+001  0.574026320169307E+001  0.870135151185853E+000  0.288072732894437E+001  0.291762901536454E+001 -0.655108033504341E+001 -0.287013160084653E+001
  0.100000000000000E+001  0.568069282169722E+001  0.616462553985635E+000  0.857038019476675E+000  0.277742606173538E+001 -0.655108033504341E+001 -0.284034641084861E+001
  0.100000000000000E+001  0.563945851902784E+001  0.112742776547224E+001  0.309714054113398E+001  0.311886027451338E+001 -0.655108033504341E+001 -0.281972925951392E+001
  0.100000000000000E+001  0.562416212622720E+001  0.243637908826255E+000  0.176840901605848E+001  0.329865281698523E+001 -0.655108033504341E+001 -0.281208106311360E+001
  0.100000000000000E+001  0.561039466716177E+001  0.113149230762290E+001  0.295462591978181E+001  0.365871454993007E+001 -0.655108033504341E+001 -0.280519733358088E+001
  0.100000000000000E+001  0.546253965525472E+001  0.662199091245106E+000  0.120177042932323E+001  0.333123530889091E+001 -0.655108033504341E+001 -0.273126982762736E+001
  0.100000000000000E+001  0.534019774435110E+001  0.103252211487321E+001  0.998710212857445E+000  0.252372499950687E+001 -0.655108033504341E+001 -0.267009887217555E+001
  0.100000000000000E+001  0.533014505318784E+001  0.537624850111308E+000  0.238633170558721E+001  0.276220150492508E+001 -0.655108033504341E+001 -0.266507252659392E+001
  0.100000000000000E+001  0.529904171797596E+001  0.755672296005665E+000  0.159039813602295E+001  0.224906209038755E+001 -0.655108033504341E+001 -0.264952085898798E+001
  0.100000000000000E+001  0.508376253030242E+001  0.170797808636279E+001  0.214574614817039E+001  0.267663660913109E+001 -0.655108033504341E+001 -0.254188126515121E+001
  0.100000000000000E+001  0.501175301261595E+001  0.133655624739787E+001  0.309082109379673E+001  0.324424090566376E+001 -0.655108033504341E+001 -0.250587650630798E+001
  0.100000000000000E+001  0.500839578498137E+001  0.333027573272185E+000  0.211835114830379E+001  0.294816519299087E+001 -0.655108033504341E+001 -0.250419789249068E+001
  0.100000000000000E+001  0.482771108248412E+001  0.126962528944847E+001  0.123830899285717E+001  0.295019422191764E+001 -0.655108033504341E+001 -0.241385554124206E+001
  0.100000000000000E+001  0.475924494259855E+001  0.489670518390622E+000  0.107236964629522E+001  0.258887871554439E+001 -0.655108033504341E+001 -0.237962247129927E+001
  0.100000000000000E+001  0.470788254416128E+001  0.628812497467908E+000  0.208757822895241E+001  0.365565427777547E+001 -0.655108033504341E+001 -0.235394127208064E+001
  0.100000000000000E+001  0.462334089159208E+001  0.770820974381468E+000  0.278630580413874E+001  0.306122425955242E+001 -0.655108033504341E+001 -0.231167044579604E+001
  0.100000000000000E+001  0.461026890630241E+001  0.884627693973208E+000  0.125151271346771E+001  0.231810247807452E+001 -0.655108033504341E+001 -0.230513445315121E+001
  0.100000000000000E+001  0.322956184500461E+001  0.892258652121167E+000  0.109885755674194E+001  0.275946286646315E+001 -0.655108033504341E+001 -0.161478092250230E+001
  0.100000000000000E+001  0.456698374770369E+001  0.748226447925765E+000  0.279827878602259E+001  0.332352720074010E+001 -0.655108033504341E+001 -0.228349187385184E+001
  0.100000000000000E+001  0.449308226685984E+001  0.522247413311889E+000  0.147988650154374E+001  0.243438092181460E+001 -0.655108033504341E+001 -0.224654113342992E+001
  0.100000000000000E+001  0.445014763999004E+001  0.165606754817850E+001  0.261763530781894E+001  0.284574263909284E+001 -0.655108033504341E+001 -0.222507381999502E+001
  0.100000000000000E+001  0.439733632340552E+001  0.662109617986602E+000  0.109382323540782E+001  0.247697219583750E+001 -0.655108033504341E+001 -0.219866816170276E+001
  0.100000000000000E+001  0.436366742239400E+001  0.124906764770944E+001  0.192246706275661E+001  0.356323313982938E+001 -0.655108033504341E+001 -0.218183371119700E+001
  0.100000000000000E+001  0.430933266105106E+001  0.900763993048870E+000  0.218871867726968E+001  0.371450942119614E+001 -0.655108033504341E+001 -0.215466633052553E+001
  0.100000000000000E+001  0.428979336680897E+001  0.877486268599038E+000  0.121362717329119E+001  0.236616015521615E+001 -0.655108033504341E+001 -0.214489668340448E+001
  0.100000000000000E+001  0.428942949353775E+001  0.137557381775946E+001  0.287027196288277E+001  0.351649642291406E+001 -0.655108033504341E+001 -0.214471474676888E+001
  0.100000000000000E+001  0.427890763526602E+001  0.157851985188784E+001  0.252435235898219E+001  0.343806332429047E+001 -0.655108033504341E+001 -0.213945381763301E+001
  0.100000000000000E+001  0.422010989259182E+001  0.147070293458519E+001  0.232906763599905E+001  0.352902550514148E+001 -0.655108033504341E+001 -0.211005494629591E+001
  0.100000000000000E+001  0.412389647092420E+001  0.867795841748808E+000  0.134099814096239E+001  0.333165885663496E+001 -0.655108033504341E+001 -0.206194823546210E+001
  0.100000000000000E+001  0.411837353533934E+001  0.166324199345874E+001  0.200095182179549E+001  0.282101388651315E+001 -0.655108033504341E+001 -0.205918676766967E+001
  0.100000000000000E+001  0.407056333961433E+001  0.110823157825437E+001  0.274364807044291E+001  0.363373704136860E+001 -0.655108033504341E+001 -0.203528166980716E+001
  0.100000000000000E+001  0.406069459703230E+001  0.128454116899567E+001  0.128093288231606E+001  0.274906475051719E+001 -0.655108033504341E+001 -0.203034729851615E+001
  0.100000000000000E+001  0.405327368038384E+001  0.110876352875335E+001  0.237071284158996E+001  0.247963119413483E+001 -0.655108033504341E+001 -0.202663684019192E+001
  0.100000000000000E+001  0.403363983313948E+001  0.151790869264618E+001  0.289625652891803E+001  0.322257364225777E+001 -0.655108033504341E+001 -0.201681991656974E+001
  0.100000000000000E+001  0.324346424046614E+001  0.147626642790370E+001  0.176020500155949E+001  0.262585482043112E+001 -0.655108033504341E+001 -0.162173212023307E+001
  0.100000000000000E+001  0.387639643064561E+001  0.498242649038542E+000  0.237389842766030E+001  0.307840779831642E+001 -0.655108033504341E+001 -0.193819821532281E+001
  0.100000000000000E+001  0.384866217210473E+001  0.151598559618094E+001  0.251776995891347E+001  0.268260058786111E+001 -0.655108033504341E+001 -0.192433108605237E+001
  0.100000000000000E+001  0.384699646216773E+001  0.152415121016322E+001  0.166682254336229E+001  0.275610009610869E+001 -0.655108033504341E+001 -0.192349823108386E+001
  0.100000000000000E+001  0.383157979883400E+001  0.917465395224058E+000  0.209823986488236E+001  0.240915167602155E+001 -0.655108033504341E+001 -0.191578989941700E+001
  0.100000000000000E+001  0.378391707466484E+001  0.165989390978799E+001  0.249888296502620E+001  0.290045649661098E+001 -0.655108033504341E+001 -0.189195853733242E+001
  0.100000000000000E+001  0.377378519360307E+001  0.723934265634616E+000  0.269261411605989E+001  0.330759882711061E+001 -0.655108033504341E+001 -0.188689259680154E+001
  0.100000000000000E+001  0.371701240344721E+001  0.103787218189369E+001  0.247250244198061E+001  0.258063515104702E+001 -0.655108033504341E+001 -0.185850620172360E+001
  0.100000000000000E+001  0.370541248242443E+001  0.109279777517923E+001  0.235018524530154E+001  0.367820660128280E+001 -0.655108033504341E+001 -0.185270624121222E+001
  0.100000000000000E+001  0.366688660890871E+001  0.555555494837944E+000  0.239778829610377E+001  0.297355168968211E+001 -0.655108033504341E+001 -0.183344330445435E+001
  0.100000000000000E+001  0.366215555148556E+001  0.937672400426256E+000  0.146271663781160E+001  0.337486223254206E+001 -0.655108033504341E+001 -0.183107777574278E+001
  0.100000000000000E+001  0.324520990538471E+001  0.142521665315657E+001  0.156443424399819E+001  0.286113177211227E+001 -0.655108033504341E+001 -0.162260495269235E+001
  0.100000000000000E+001  0.359629953742382E+001  0.156457761767441E+001  0.257906453894851E+001  0.280794511902485E+001 -0.655108033504341E+001 -0.179814976871191E+001
  0.100000000000000E+001  0.351042885519266E+001  0.144092417570897E+001  0.236414782583135E+001  0.349809058431925E+001 -0.655108033504341E+001 -0.175521442759633E+001
  0.100000000000000E+001  0.341258276362651E+001  0.766725391840839E+000  0.240521218358878E+001  0.359319614266686E+001 -0.655108033504341E+001 -0.170629138181325E+001
  0.100000000000000E+001  0.340622281748506E+001  0.870668836364591E+000  0.182471885840037E+001  0.356536629457215E+001 -0.655108033504341E+001 -0.170311140874253E+001
  0.100000000000000E+001  0.337937682137594E+001  0.133434671254664E+001  0.233088792594836E+001  0.253155012321705E+001 -0.655108033504341E+001 -0.168968841068797E+001
  0.100000000000000E+001  0.335144668678115E+001  0.363899129831764E+000  0.190529990339873E+001  0.303634511151254E+001 -0.655108033504341E+001 -0.167572334339058E+001
  0.100000000000000E+001  0.332877153387942E+001  0.607558788539711E+000  0.223684972370058E+001  0.350608975173705E+001 -0.655108033504341E+001 -0.166438576693971E+001
  0.100000000000000E+001  0.331866850961311E+001  0.146745414537395E+001  0.278184758434495E+001  0.297019249180311E+001 -0.655108033504341E+001 -0.165933425480655E+001
  0.100000000000000E+001  0.328893725906741E+001  0.995707748782817E+000  0.151094109818275E+001  0.336139431472501E+001 -0.655108033504341E+001 -0.164446862953371E+001
  0.100000000000000E+001  0.303814058328854E+001  0.115976618609155E+001  0.238407506915490E+001  0.255969922015554E+001 -0.655108033504341E+001 -0.151907029164427E+001
  0.100000000000000E+001  0.299861702428355E+001  0.106789466377192E+001  0.134422157587201E+001  0.247919355162587E+001 -0.655108033504341E+001 -0.149930851214177E+001
  0.100000000000000E+001  0.285904746359000E+001  0.147488428163946E+001  0.232863996127875E+001  0.266214565951598E+001 -0.655108033504341E+001 -0.142952373179500E+001
  0.100000000000000E+001  0.270652042715368E+001  0.155156222442844E+001  0.235014053834875E+001  0.279046283506990E+001 -0.655108033504341E+001 -0.135326021357684E+001
  0.100000000000000E+001  0.266840220241078E+001  0.980702605466716E+000  0.249895163301002E+001  0.271352093286588E+001 -0.655108033504341E+001 -0.133420110120539E+001
  0.100000000000000E+001  0.266469839086069E+001  0.804134807765484E+000  0.265424084718939E+001  0.315875633458931E+001 -0.655108033504341E+001 -0.133234919543035E+001
  0.100000000000000E+001  0.261876699037731E+001  0.734844705301311E+000  0.155556495526048E+001  0.246222273247774E+001 -0.655108033504341E+001 -0.130938349518866E+001
  0.100000000000000E+001  0.261160333111641E+001  0.116924373478871E+001  0.154255097363078E+001  0.321944911604354E+001 -0.655108033504341E+001 -0.130580166555821E+001
  0.100000000000000E+001  0.252055927188040E+001  0.940231765760666E+000  0.142558416831388E+001  0.323492748778286E+001 -0.655108033504341E+001 -0.126027963594020E+001
  0.100000000000000E+001  0.250178867236864E+001  0.926888020838089E+000  0.181506035602331E+001  0.242486148226986E+001 -0.655108033504341E+001 -0.125089433618432E+001
  0.100000000000000E+001  0.250043769750075E+001  0.152539040244053E+001  0.193301658937128E+001  0.300187381350903E+001 -0.655108033504341E+001 -0.125021884875037E+001
  0.100000000000000E+001  0.247122404715648E+001  0.104870508030567E+001  0.127457253855434E+001  0.292426722870610E+001 -0.655108033504341E+001 -0.123561202357824E+001
  0.100000000000000E+001  0.246818479850384E+001  0.136108819526568E+001  0.241821366054486E+001  0.346398080817867E+001 -0.655108033504341E+001 -0.123409239925192E+001
  0.100000000000000E+001  0.246148048178739E+001  0.127717683247080E+001  0.249302869505857E+001  0.269097303881850E+001 -0.655108033504341E+001 -0.123074024089369E+001
  0.100000000000000E+001  0.245113805468919E+001  0.778595522968134E+000  0.154513165700323E+001  0.246029830274940E+001 -0.655108033504341E+001 -0.122556902734460E+001
  0.100000000000000E+001  0.237928371134440E+001  0.682987943696716E+000  0.129025931353567E+001  0.261074673975579E+001 -0.655108033504341E+001 -0.118964185567220E+001
  0.100000000000000E+001  0.237164618068158E+001  0.144730238390983E+001  0.228909259571814E+001  0.268041967141888E+001 -0.655108033504341E+001 -0.118582309034079E+001
  0.100000000000000E+001  0.233765470598583E+001  0.908329929814202E+000  0.267866147495988E+001  0.335128400555188E+001 -0.655108033504341E+001 -0.116882735299292E+001
  0.100000000000000E+001  0.233713231225048E+001  0.487249116626943E+000  0.147105981018902E+001  0.276939672806742E+001 -0.655108033504341E+001 -0.116856615612524E+001
  0.100000000000000E+001  0.229692229732248E+001  0.142825714138375E+001  0.236473184647462E+001  0.270641631915881E+001 -0.655108033504341E+001 -0.114846114866124E+001
  0.100000000000000E+001  0.227750598358090E+001  0.125368902148254E+001  0.275514551713947E+001  0.335682785973330E+001 -0.655108033504341E+001 -0.113875299179045E+001
  0.100000000000000E+001  0.223573379044259E+001  0.148823794445031E+001  0.258357226945095E+001  0.322194872569636E+001 -0.655108033504341E+001 -0.111786689522130E+001
  0.100000000000000E+001  0.223348575480239E+001  0.144425864562955E+001  0.268929276411198E+001  0.314439823926591E+001 -0.655108033504341E+001 -0.111674287740119E+001
  0.100000000000000E+001  0.217321566090269E+001  0.699168090839369E+000  0.221065420385704E+001  0.274317536137737E+001 -0.655108033504341E+001 -0.108660783045134E+001
  0.100000000000000E+001  0.211214637331980E+001  0.120996266657625E+001  0.169775030010764E+001  0.250054200849510E+001 -0.655108033504341E+001 -0.105607318665990E+001
  0.100000000000000E+001  0.210294462221987E+001  0.146247621916409E+001  0.246686932413300E+001  0.330071290163131E+001 -0.655108033504341E+001 -0.105147231110993E+001
  0.100000000000000E+001  0.207773068154476E+001  0.900179203184891E+000  0.229531629617450E+001  0.265600987137354E+001 -0.655108033504341E+001 -0.103886534077238E+001
  0.100000000000000E+001  0.206908253688041E+001  0.114912655223591E+001  0.241525738279491E+001  0.352882528403742E+001 -0.655108033504341E+001 -0.103454126844020E+001
  0.100000000000000E+001  0.205753660843556E+001  0.721473041525400E+000  0.123643938937366E+001  0.288254928507291E+001 -0.655108033504341E+001 -0.102876830421778E+001
  0.100000000000000E+001  0.195993499497528E+001  0.152619868280613E+001  0.214666972683563E+001  0.306036653287266E+001 -0.655108033504341E+001 -0.979967497487639E+000
  0.100000000000000E+001  0.190024215406372E+001  0.917204772195641E+000  0.197017355828024E+001  0.349491438903023E+001 -0.655108033504341E+001 -0.950121077031862E+000
  0.100000000000000E+001  0.189203513083528E+001  0.738378430541595E+000  0.200878947059180E+001  0.346261917076776E+001 -0.655108033504341E+001 -0.946017565417639E+000
  0.100000000000000E+001  0.188887706470408E+001  0.113528487282047E+001  0.203990946166410E+001  0.251188694555739E+001 -0.655108033504341E+001 -0.944438532352039E+000
  0.100000000000000E+001  0.183678298806975E+001  0.109966024224581E+001  0.151996242060701E+001  0.253852462421990E+001 -0.655108033504341E+001 -0.918391494034875E+000
  0.100000000000000E+001  0.182804308554684E+001  0.648434469562742E+000  0.172416083651220E+001  0.261004463891132E+001 -0.655108033504341E+001 -0.914021542773419E+000
  0.100000000000000E+001  0.182429525844998E+001  0.844798937226968E+000  0.160308660457896E+001  0.332171340128078E+001 -0.655108033504341E+001 -0.912147629224991E+000
  0.100000000000000E+001  0.181164726818698E+001  0.139869792694077E+001  0.193585932204655E+001  0.266057745284184E+001 -0.655108033504341E+001 -0.905823634093491E+000
  0.100000000000000E+001  0.179806528852892E+001  0.826179216010571E+000  0.192370631499808E+001  0.254161222997159E+001 -0.655108033504341E+001 -0.899032644264461E+000
  0.100000000000000E+001  0.179108655191258E+001  0.121183902871473E+001  0.148242637076224E+001  0.272493709608781E+001 -0.655108033504341E+001 -0.895543275956289E+000
  0.100000000000000E+001  0.170387040979044E+001  0.972636086361087E+000  0.202126158181409E+001  0.348909591383602E+001 -0.655108033504341E+001 -0.851935204895219E+000
  0.100000000000000E+001  0.164855744481396E+001  0.137671260843041E+001  0.190990360418684E+001  0.317818451562091E+001 -0.655108033504341E+001 -0.824278722406979E+000
  0.100000000000000E+001  0.163621589590431E+001  0.115156479242613E+001  0.257588971099958E+001  0.343063341848254E+001 -0.655108033504341E+001 -0.818107947952153E+000
  0.100000000000000E+001  0.163539871333485E+001  0.109523901692124E+001  0.271315829269217E+001  0.317624639901329E+001 -0.655108033504341E+001 -0.817699356667423E+000
  0.100000000000000E+001  0.153694862922145E+001  0.972741165056797E+000  0.262188509759422E+001  0.304731605704532E+001 -0.655108033504341E+001 -0.768474314610725E+000
  0.100000000000000E+001  0.151644795552767E+001  0.126242910482203E+001  0.199845485610734E+001  0.257858446129169E+001 -0.655108033504341E+001 -0.758223977763833E+000
  0.100000000000000E+001  0.144645227238204E+001  0.864379859210831E+000  0.135509687392223E+001  0.300785502490762E+001 -0.655108033504341E+001 -0.723226136191021E+000
  0.100000000000000E+001  0.143331621392489E+001  0.146932942810905E+001  0.204115675944953E+001  0.292339650756517E+001 -0.655108033504341E+001 -0.716658106962445E+000
  0.100000000000000E+001  0.142404442669304E+001  0.111510064405942E+001  0.178747510742576E+001  0.252318384765898E+001 -0.655108033504341E+001 -0.712022213346519E+000
  0.100000000000000E+001  0.135321496792380E+001  0.138191472688487E+001  0.197156381800263E+001  0.270898617627727E+001 -0.655108033504341E+001 -0.676607483961901E+000
  0.100000000000000E+001  0.131089374029604E+001  0.526413556951930E+000  0.185037434800300E+001  0.305866042646660E+001 -0.655108033504341E+001 -0.655446870148020E+000
  0.100000000000000E+001  0.127411507961814E+001  0.120283424875253E+001  0.264380854458026E+001  0.327578046694338E+001 -0.655108033504341E+001 -0.637057539809068E+000
  0.100000000000000E+001  0.126048455511467E+001  0.126179592903789E+001  0.263178242438168E+001  0.303749227931448E+001 -0.655108033504341E+001 -0.630242277557336E+000
  0.100000000000000E+001  0.124647797030583E+001  0.997901575025868E+000  0.256913999400617E+001  0.298308063164670E+001 -0.655108033504341E+001 -0.623238985152915E+000
  0.100000000000000E+001  0.120182101805436E+001  0.109923047861416E+001  0.241084240460043E+001  0.344291992979933E+001 -0.655108033504341E+001 -0.600910509027177E+000
  0.100000000000000E+001  0.115594307586780E+001  0.917274106132909E+000  0.246768348695531E+001  0.337135585419637E+001 -0.655108033504341E+001 -0.577971537933900E+000
  0.100000000000000E+001  0.114080941798896E+001  0.851057424503733E+000  0.134829036909327E+001  0.281749386295029E+001 -0.655108033504341E+001 -0.570404708994479E+000
  0.100000000000000E+001  0.113615892304735E+001  0.551218437890502E+000  0.186359380340462E+001  0.294962134196481E+001 -0.655108033504341E+001 -0.568079461523673E+000
  0.100000000000000E+001  0.113425979769671E+001  0.834598752446762E+000  0.136413749138819E+001  0.274898380711253E+001 -0.655108033504341E+001 -0.567129898848355E+000
  0.100000000000000E+001  0.113117214990691E+001  0.579807020842113E+000  0.191253179620600E+001  0.288339420800275E+001 -0.655108033504341E+001 -0.565586074953456E+000
  0.100000000000000E+001  0.111388631260389E+001  0.594669892050707E+000  0.207416341642269E+001  0.312223322793946E+001 -0.655108033504341E+001 -0.556943156301943E+000
  0.100000000000000E+001  0.103578717347610E+001  0.118780557417704E+001  0.257439380170218E+001  0.296346786674185E+001 -0.655108033504341E+001 -0.517893586738049E+000
  0.100000000000000E+001  0.997032032608063E+000  0.812282511918700E+000  0.240983637958654E+001  0.301848288658618E+001 -0.655108033504341E+001 -0.498516016304030E+000
  0.100000000000000E+001  0.996835288864027E+000  0.112150161471321E+001  0.242724887672759E+001  0.280182475741633E+001 -0.655108033504341E+001 -0.498417644432012E+000
  0.100000000000000E+001  0.994504526533087E+000  0.762475415110228E+000  0.176280261167045E+001  0.330491929955266E+001 -0.655108033504341E+001 -0.497252263266542E+000
  0.100000000000000E+001  0.981529135670980E+000  0.143885506337959E+001  0.230234943866251E+001  0.304430840609950E+001 -0.655108033504341E+001 -0.490764567835489E+000
  0.100000000000000E+001  0.957181635207370E+000  0.132031926699264E+001  0.176316963764069E+001  0.292716155932673E+001 -0.655108033504341E+001 -0.478590817603684E+000
  0.100000000000000E+001  0.954704262705606E+000  0.714072253776940E+000  0.227753373402837E+001  0.321960927264383E+001 -0.655108033504341E+001 -0.477352131352802E+000
  0.100000000000000E+001  0.941553309026405E+000  0.984678467804977E+000  0.249477153941787E+001  0.293958556406843E+001 -0.655108033504341E+001 -0.470776654513202E+000
  0.100000000000000E+001  0.925322808251007E+000  0.988745983018464E+000  0.255907376645960E+001  0.324941967883788E+001 -0.655108033504341E+001 -0.462661404125503E+000
  0.100000000000000E+001  0.917923850226462E+000  0.114804186854744E+001  0.258013309056023E+001  0.300612995002986E+001 -0.655108033504341E+001 -0.458961925113230E+000
  0.100000000000000E+001  0.913354889604777E+000  0.882502649985085E+000  0.247043049456838E+001  0.303270977514616E+001 -0.655108033504341E+001 -0.456677444802388E+000
  0.100000000000000E+001  0.891730808047262E+000  0.103324319729499E+001  0.221894135279025E+001  0.268339934782297E+001 -0.655108033504341E+001 -0.445865404023630E+000
  0.100000000000000E+001  0.881109612970617E+000  0.843938158043260E+000  0.138971831960153E+001  0.287313145439187E+001 -0.655108033504341E+001 -0.440554806485308E+000
  0.100000000000000E+001  0.877175177375319E+000  0.109727080461516E+001  0.233868036135675E+001  0.275028303630157E+001 -0.655108033504341E+001 -0.438587588687659E+000
  0.100000000000000E+001  0.847001757504124E+000  0.122251295219000E+001  0.235272647123106E+001  0.336283590477979E+001 -0.655108033504341E+001 -0.423500878752061E+000
  0.100000000000000E+001  0.818760016949556E+000  0.923126089257905E+000  0.178152547852623E+001  0.331459381603421E+001 -0.655108033504341E+001 -0.409380008474777E+000
  0.100000000000000E+001  0.802509915841894E+000  0.128044432405936E+001  0.188838996847396E+001  0.269341476835081E+001 -0.655108033504341E+001 -0.401254957920946E+000
  0.100000000000000E+001  0.787000696230095E+000  0.658668433798216E+000  0.204975638831462E+001  0.323191225109760E+001 -0.655108033504341E+001 -0.393500348115047E+000
  0.100000000000000E+001  0.752786746136108E+000  0.121036002795063E+001  0.229762385808566E+001  0.274970106616482E+001 -0.655108033504341E+001 -0.376393373068053E+000
  0.100000000000000E+001  0.732104196125507E+000  0.137810485781852E+001  0.196754760448169E+001  0.296708545919967E+001 -0.655108033504341E+001 -0.366052098062752E+000
  0.100000000000000E+001  0.717922632132158E+000  0.989863547298763E+000  0.254091966878818E+001  0.316944377339069E+001 -0.655108033504341E+001 -0.358961316066078E+000
  0.100000000000000E+001  0.714652159959591E+000  0.914979885805023E+000  0.216074791150767E+001  0.271228912340824E+001 -0.655108033504341E+001 -0.357326079979795E+000
  0.100000000000000E+001  0.711690490656439E+000  0.628690503670664E+000  0.204697937497611E+001  0.309905878094370E+001 -0.655108033504341E+001 -0.355845245328218E+000
  0.100000000000000E+001  0.666453656407393E+000  0.842929880942197E+000  0.144846339899386E+001  0.275932025903099E+001 -0.655108033504341E+001 -0.333226828203695E+000
  0.100000000000000E+001  0.665492373585517E+000  0.110763341333011E+001  0.156802382763881E+001  0.298873709325213E+001 -0.655108033504341E+001 -0.332746186792757E+000
  0.100000000000000E+001  0.665017520426895E+000  0.684009476723605E+000  0.164106397225422E+001  0.313332742088616E+001 -0.655108033504341E+001 -0.332508760213447E+000
  0.100000000000000E+001  0.658053136541701E+000  0.132345555781336E+001  0.226967438392612E+001  0.281692102277171E+001 -0.655108033504341E+001 -0.329026568270850E+000
  0.100000000000000E+001  0.651724571761131E+000  0.110768483663641E+001  0.155767488941740E+001  0.295866598045508E+001 -0.655108033504341E+001 -0.325862285880564E+000
  0.100000000000000E+001  0.637318882075595E+000  0.127106076323609E+001  0.219514475386985E+001  0.274380896533794E+001 -0.655108033504341E+001 -0.318659441037796E+000
  0.100000000000000E+001  0.630938304218914E+000  0.109201992058097E+001  0.246819893953261E+001  0.291024084887386E+001 -0.655108033504341E+001 -0.315469152109456E+000
  0.100000000000000E+001  0.604574450251585E+000  0.139406286432941E+001  0.214554871522600E+001  0.303179638262847E+001 -0.655108033504341E+001 -0.302287225125791E+000
  0.100000000000000E+001  0.551500752577047E+000  0.103255811045548E+001  0.164094705742911E+001  0.314197209683618E+001 -0.655108033504341E+001 -0.275750376288523E+000
  0.100000000000000E+001  0.525450206672829E+000  0.104798632440971E+001  0.247150138973760E+001  0.295546821154140E+001 -0.655108033504341E+001 -0.262725103336414E+000
  0.100000000000000E+001  0.509220397203086E+000  0.101799617459403E+001  0.170223127465209E+001  0.319874261371994E+001 -0.655108033504341E+001 -0.254610198601542E+000
  0.100000000000000E+001  0.490470709604562E+000  0.863767352208804E+000  0.145854337048823E+001  0.283106635321169E+001 -0.655108033504341E+001 -0.245235354802280E+000
  0.100000000000000E+001  0.465326251107467E+000  0.707796329416466E+000  0.215393744352546E+001  0.300000087680264E+001 -0.655108033504341E+001 -0.232663125553732E+000
  0.100000000000000E+001  0.464763990717177E+000  0.125412070215487E+001  0.199389979597448E+001  0.320800733715443E+001 -0.655108033504341E+001 -0.232381995358588E+000
  0.100000000000000E+001  0.446196954247004E+000  0.106382197493160E+001  0.214204054366702E+001  0.269448517381078E+001 -0.655108033504341E+001 -0.223098477123501E+000
  0.100000000000000E+001  0.428775828063044E+000  0.720793246387575E+000  0.152683661032779E+001  0.289132483049166E+001 -0.655108033504341E+001 -0.214387914031521E+000
  0.100000000000000E+001  0.422168602813409E+000  0.103226428066270E+001  0.154492578008561E+001  0.297159463996136E+001 -0.655108033504341E+001 -0.211084301406704E+000
  0.100000000000000E+001  0.416309648741452E+000  0.913249370915461E+000  0.242940026055083E+001  0.320214375608904E+001 -0.655108033504341E+001 -0.208154824370725E+000
  0.100000000000000E+001  0.401848786180770E+000  0.630360555246729E+000  0.183049387459053E+001  0.304861608090689E+001 -0.655108033504341E+001 -0.200924393090383E+000
  0.100000000000000E+001  0.395220819153700E+000  0.693428290668208E+000  0.164514008740308E+001  0.307715613939925E+001 -0.655108033504341E+001 -0.197610409576849E+000
  0.100000000000000E+001  0.385643850979598E+000  0.135424624249191E+001  0.203264662869301E+001  0.296195373014974E+001 -0.655108033504341E+001 -0.192821925489798E+000
  0.100000000000000E+001  0.383822931704264E+000  0.120650361390381E+001  0.250899514416110E+001  0.313727082062971E+001 -0.655108033504341E+001 -0.191911465852131E+000
  0.100000000000000E+001  0.370738102562077E+000  0.108277063699362E+001  0.189212303250344E+001  0.327316244520206E+001 -0.655108033504341E+001 -0.185369051281038E+000
  0.100000000000000E+001  0.367007584233113E+000  0.823039809541927E+000  0.198686621393047E+001  0.272728605819483E+001 -0.655108033504341E+001 -0.183503792116555E+000
  0.100000000000000E+001  0.366886676671427E+000  0.115512652864946E+001  0.181892161547429E+001  0.317669766048375E+001 -0.655108033504341E+001 -0.183443338335713E+000
  0.100000000000000E+001  0.323321225828574E+000  0.857294614487594E+000  0.236855985890902E+001  0.311109211147320E+001 -0.655108033504341E+001 -0.161660612914286E+000
  0.100000000000000E+001  0.307699584485023E+000  0.953303477720192E+000  0.161369456432597E+001  0.310777537424513E+001 -0.655108033504341E+001 -0.153849792242511E+000
  0.100000000000000E+001  0.300306898445186E+000  0.112498436999655E+001  0.162196150360851E+001  0.291929954858861E+001 -0.655108033504341E+001 -0.150153449222592E+000
  0.100000000000000E+001  0.277984788665913E+000  0.983541843691533E+000  0.201561534823648E+001  0.333553569726910E+001 -0.655108033504341E+001 -0.138992394332955E+000
  0.100000000000000E+001  0.266184592906439E+000  0.735117771948451E+000  0.170799665105499E+001  0.314135569234178E+001 -0.655108033504341E+001 -0.133092296453219E+000
  0.100000000000000E+001  0.258987434334546E+000  0.127508963593398E+001  0.186332267082346E+001  0.299407912081759E+001 -0.655108033504341E+001 -0.129493717167272E+000
  0.100000000000000E+001  0.212681764336795E+000  0.748406892743881E+000  0.215458120616808E+001  0.297905341722593E+001 -0.655108033504341E+001 -0.106340882168396E+000
  0.100000000000000E+001  0.197873904117692E+000  0.987220896033931E+000  0.206338917600223E+001  0.333486215270891E+001 -0.655108033504341E+001 -0.989369520588452E-001
  0.100000000000000E+001  0.161535558677933E+000  0.116337491474990E+001  0.245852853479686E+001  0.302921974744637E+001 -0.655108033504341E+001 -0.807677793389654E-001
  0.100000000000000E+001  0.160248183326123E+000  0.105450634457667E+001  0.189076161760528E+001  0.325563161040509E+001 -0.655108033504341E+001 -0.801240916630611E-001
  0.100000000000000E+001  0.134404031199134E+000  0.977242247696586E+000  0.235438934186722E+001  0.327854712047665E+001 -0.655108033504341E+001 -0.672020155995665E-001
  0.100000000000000E+001  0.130259588027162E+000  0.122130884245839E+001  0.193888787093091E+001  0.314960873563160E+001 -0.655108033504341E+001 -0.651297940135799E-001
  0.100000000000000E+001  0.124786993320104E+000  0.103620308948055E+001  0.158825458250408E+001  0.293896024996468E+001 -0.655108033504341E+001 -0.623934966600513E-001
  0.100000000000000E+001  0.110761071988518E+000  0.128611502102796E+001  0.192175196079523E+001  0.294573787045970E+001 -0.655108033504341E+001 -0.553805359942585E-001
  0.100000000000000E+001  0.107946180542777E+000  0.988300670007865E+000  0.222963707668978E+001  0.332557683696072E+001 -0.655108033504341E+001 -0.539730902713876E-001
  0.100000000000000E+001  0.102423499493785E+000  0.741638211102078E+000  0.192740572174382E+001  0.282978621436314E+001 -0.655108033504341E+001 -0.512117497468916E-001
  0.100000000000000E+001  0.101191539826031E+000  0.731229846917582E+000  0.162509632819680E+001  0.287503370017420E+001 -0.655108033504341E+001 -0.505957699130143E-001
  0.100000000000000E+001  0.823878485445473E-001  0.700257207048093E+000  0.197174566223370E+001  0.312163241520632E+001 -0.655108033504341E+001 -0.411939242722726E-001
  0.100000000000000E+001  0.288295164413093E-001  0.959184418626360E+000  0.239236734653614E+001  0.316622988324487E+001 -0.655108033504341E+001 -0.144147582206540E-001
  0.100000000000000E+001  0.266727804560425E-001  0.114475214872473E+001  0.169823971162228E+001  0.291564056811024E+001 -0.655108033504341E+001 -0.133363902280202E-001
  0.100000000000000E+001  0.847601445273582E-002  0.124460824306250E+001  0.186615954423696E+001  0.288156555914424E+001 -0.655108033504341E+001 -0.423800722636725E-002
  0.100000000000000E+001 -0.645010998157503E-002  0.116545749549394E+001  0.243462787785359E+001  0.309210847692521E+001 -0.655108033504341E+001  0.322505499078835E-002
  0.100000000000000E+001 -0.224530098981948E-001  0.123775757888151E+001  0.198060108540495E+001  0.311860362434862E+001 -0.655108033504341E+001  0.112265049490985E-001
  0.100000000000000E+001 -0.224864026160692E-001  0.891424815288933E+000  0.164331060659371E+001  0.274650667017241E+001 -0.655108033504341E+001  0.112432013080354E-001
  0.100000000000000E+001 -0.535217118071269E-001  0.105932703497571E+001  0.185213706841127E+001  0.270088027664891E+001 -0.655108033504341E+001  0.267608559035643E-001
  0.100000000000000E+001 -0.670082965672432E-001  0.885546033081273E+000  0.165470210635594E+001  0.308238970107126E+001 -0.655108033504341E+001  0.335041482836225E-001
  0.100000000000000E+001 -0.695947499406611E-001  0.728801793625530E+000  0.168526336775227E+001  0.295302670156526E+001 -0.655108033504341E+001  0.347973749703311E-001
  0.100000000000000E+001 -0.103114624493491E+000  0.847689893126106E+000  0.215944786917586E+001  0.289751661572664E+001 -0.655108033504341E+001  0.515573122467470E-001
  0.100000000000000E+001 -0.108898696217775E+000  0.115908372749613E+001  0.240104431932429E+001  0.314743289084940E+001 -0.655108033504341E+001  0.544493481088887E-001
  0.100000000000000E+001 -0.178646395977495E+000  0.104974367176861E+001  0.238136588165655E+001  0.303071107495568E+001 -0.655108033504341E+001  0.893231979887482E-001
  0.100000000000000E+001 -0.190371022744902E+000  0.943844433387091E+000  0.169630205077157E+001  0.275239150912485E+001 -0.655108033504341E+001  0.951855113724520E-001
  0.100000000000000E+001 -0.191888805800128E+000  0.746331611187192E+000  0.203026282135601E+001  0.307731248831491E+001 -0.655108033504341E+001  0.959444029000648E-001
  0.100000000000000E+001 -0.223450107650534E+000  0.113965023734923E+001  0.201379775088194E+001  0.276642456426190E+001 -0.655108033504341E+001  0.111725053825268E+000
  0.100000000000000E+001 -0.237498747005048E+000  0.110433051231223E+001  0.175617739984592E+001  0.280522837672710E+001 -0.655108033504341E+001  0.118749373502525E+000
  0.100000000000000E+001 -0.240540525826470E+000  0.802705686633483E+000  0.165675674076044E+001  0.289194514278097E+001 -0.655108033504341E+001  0.120270262913236E+000
  0.100000000000000E+001 -0.255525908982925E+000  0.919707275801545E+000  0.229076821754748E+001  0.315520348953659E+001 -0.655108033504341E+001  0.127762954491464E+000
  0.100000000000000E+001 -0.267756552767560E+000  0.774156306311289E+000  0.175747299002961E+001  0.286374597538623E+001 -0.655108033504341E+001  0.133878276383781E+000
  0.100000000000000E+001 -0.293722994850331E+000  0.106081545685399E+001  0.229322761505227E+001  0.322530282838612E+001 -0.655108033504341E+001  0.146861497425166E+000
  0.100000000000000E+001 -0.300765516410809E+000  0.112629712083160E+001  0.205083036626940E+001  0.278384062838622E+001 -0.655108033504341E+001  0.150382758205406E+000
  0.100000000000000E+001 -0.302490984226962E+000  0.121453724281169E+001  0.199438663597969E+001  0.285319583935009E+001 -0.655108033504341E+001  0.151245492113482E+000
  0.100000000000000E+001 -0.328523178302131E+000  0.119445121444244E+001  0.187851410326671E+001  0.291023184355038E+001 -0.655108033504341E+001  0.164261589151066E+000
  0.100000000000000E+001 -0.330279769037446E+000  0.869212929919298E+000  0.171739746684999E+001  0.307455070021395E+001 -0.655108033504341E+001  0.165139884518724E+000
  0.100000000000000E+001 -0.352351781692862E+000  0.843396501672192E+000  0.174290869810076E+001  0.281526544160787E+001 -0.655108033504341E+001  0.176175890846432E+000
  0.100000000000000E+001 -0.363035195044970E+000  0.121920074724452E+001  0.204982205223824E+001  0.287952896317044E+001 -0.655108033504341E+001  0.181517597522486E+000
  0.100000000000000E+001 -0.399093086943433E+000  0.100335379155472E+001  0.226444224600365E+001  0.320432870682929E+001 -0.655108033504341E+001  0.199546543471717E+000
  0.100000000000000E+001 -0.409687716213538E+000  0.107094249487856E+001  0.177153666278886E+001  0.303038400135806E+001 -0.655108033504341E+001  0.204843858106770E+000
  0.100000000000000E+001 -0.425836541094078E+000  0.107144129479884E+001  0.233165227361188E+001  0.311574565552654E+001 -0.655108033504341E+001  0.212918270547040E+000
  0.100000000000000E+001 -0.428238658564302E+000  0.915569211626178E+000  0.167814871297346E+001  0.285989075383637E+001 -0.655108033504341E+001  0.214119329282152E+000
  0.100000000000000E+001 -0.442347496527779E+000  0.119567600326627E+001  0.226310123101604E+001  0.307232178066740E+001 -0.655108033504341E+001  0.221173748263890E+000
  0.100000000000000E+001 -0.465388043899557E+000  0.113803839158965E+001  0.185004222965780E+001  0.286649066164760E+001 -0.655108033504341E+001  0.232694021949780E+000
  0.100000000000000E+001 -0.479519352678736E+000  0.894246766480564E+000  0.169731394266214E+001  0.286955917152451E+001 -0.655108033504341E+001  0.239759676339369E+000
  0.100000000000000E+001 -0.493546277323135E+000  0.806325207676723E+000  0.196364608046634E+001  0.310944969798645E+001 -0.655108033504341E+001  0.246773138661568E+000
  0.100000000000000E+001 -0.495771630286301E+000  0.116779142948317E+001  0.207022047321745E+001  0.313034598026434E+001 -0.655108033504341E+001  0.247885815143152E+000
  0.100000000000000E+001 -0.497318909154238E+000  0.799161964003452E+000  0.196803042701697E+001  0.294712518323616E+001 -0.655108033504341E+001  0.248659454577120E+000
  0.100000000000000E+001 -0.499831949766200E+000  0.111921691539653E+001  0.181329653801351E+001  0.292841511685911E+001 -0.655108033504341E+001  0.249915974883101E+000
  0.100000000000000E+001 -0.527163006107434E+000  0.104813020656140E+001  0.229373114119026E+001  0.312124431395853E+001 -0.655108033504341E+001  0.263581503053718E+000
  0.100000000000000E+001 -0.555204285599899E+000  0.943480231022605E+000  0.182903227857330E+001  0.280289278647273E+001 -0.655108033504341E+001  0.277602142799951E+000
  0.100000000000000E+001 -0.566319562496730E+000  0.100270249630344E+001  0.204383337511201E+001  0.320004813005301E+001 -0.655108033504341E+001  0.283159781248366E+000
  0.100000000000000E+001 -0.570870031796412E+000  0.108457752023087E+001  0.215703383658670E+001  0.288036985015068E+001 -0.655108033504341E+001  0.285435015898207E+000
  0.100000000000000E+001 -0.579193620884466E+000  0.118672046397222E+001  0.212320333123514E+001  0.307764192628194E+001 -0.655108033504341E+001  0.289596810442234E+000
  0.100000000000000E+001 -0.586368223489394E+000  0.865809587027851E+000  0.173637025273654E+001  0.293250427856344E+001 -0.655108033504341E+001  0.293184111744698E+000
  0.100000000000000E+001 -0.586604173072224E+000  0.933211193902523E+000  0.209487526782189E+001  0.288638311505384E+001 -0.655108033504341E+001  0.293302086536113E+000
  0.100000000000000E+001 -0.629308000177582E+000  0.102430652410902E+001  0.182394653455049E+001  0.283244762547431E+001 -0.655108033504341E+001  0.314654000088792E+000
  0.100000000000000E+001 -0.648138455118195E+000  0.873208993895520E+000  0.210208348573941E+001  0.300260474337600E+001 -0.655108033504341E+001  0.324069227559099E+000
  0.100000000000000E+001 -0.678405310735545E+000  0.113078631414528E+001  0.212618550894777E+001  0.291676334263849E+001 -0.655108033504341E+001  0.339202655367774E+000
  0.100000000000000E+001 -0.728300675345132E+000  0.104305228308659E+001  0.216636891480142E+001  0.314361903097159E+001 -0.655108033504341E+001  0.364150337672566E+000
  0.100000000000000E+001 -0.771438177902622E+000  0.114506084014775E+001  0.208467036296154E+001  0.302605583170747E+001 -0.655108033504341E+001  0.385719088951312E+000
  0.100000000000000E+001 -0.780642469780977E+000  0.110572095644049E+001  0.198101321364211E+001  0.290383209347153E+001 -0.655108033504341E+001  0.390321234890489E+000
  0.100000000000000E+001 -0.787479038007174E+000  0.878599200133524E+000  0.195321419804312E+001  0.293677099868443E+001 -0.655108033504341E+001  0.393739519003588E+000
  0.100000000000000E+001 -0.813492629460299E+000  0.878761351412979E+000  0.198583527126805E+001  0.297641783741058E+001 -0.655108033504341E+001  0.406746314730150E+000
  0.100000000000000E+001 -0.826583388421453E+000  0.109897364002051E+001  0.194396967747799E+001  0.297637037216703E+001 -0.655108033504341E+001  0.413291694210727E+000
  0.100000000000000E+001 -0.857546651194333E+000  0.105525241445880E+001  0.189724785741164E+001  0.294555354235884E+001 -0.655108033504341E+001  0.428773325597168E+000
  0.100000000000000E+001 -0.858781076148748E+000  0.111363837350651E+001  0.205085080476219E+001  0.300508262117397E+001 -0.655108033504341E+001  0.429390538074375E+000
  0.100000000000000E+001 -0.885837526413020E+000  0.924947260775806E+000  0.203557117922494E+001  0.305787085143664E+001 -0.655108033504341E+001  0.442918763206511E+000
  0.100000000000000E+001 -0.886960179291368E+000  0.100337706518435E+001  0.192850915680741E+001  0.290108969289001E+001 -0.655108033504341E+001  0.443480089645684E+000
  0.100000000000000E+001 -0.891808634497675E+000  0.106218008145529E+001  0.202219914661906E+001  0.292711264042432E+001 -0.655108033504341E+001  0.445904317248838E+000
  0.100000000000000E+001 -0.948965667518252E+000  0.102586304641088E+001  0.194979049772128E+001  0.301156088521823E+001 -0.655108033504341E+001  0.474482833759127E+000
  0.100000000000000E+001 -0.965377302933463E+000  0.996326484568445E+000  0.199346796450945E+001  0.295423769914516E+001 -0.655108033504341E+001  0.482688651466733E+000
