  0.214994900275465E+000  0.129958733073144E+002  0.855542188102137E+000  0.130692950020784E+001  0.342102050278264E+001  0.322251248272205E+000  0.100000000000000E+001 -0.655108033504341E+001 -0.280012176533498E+001
  0.214994900275465E+000  0.124828197275297E+002  0.106365184699537E+001  0.127954522691969E+001  0.319044996243945E+001  0.345884271190110E+000  0.100000000000000E+001 -0.655108033504341E+001 -0.210150382293715E+001
  0.214994900275465E+000  0.120857504451814E+002  0.758373907614400E+000  0.151180600942495E+001  0.332044359101769E+001  0.737108787669371E+000  0.100000000000000E+001 -0.655108033504341E+001 -0.123888900237488E+001
  0.214994900275465E+000  0.118476278299452E+002  0.705622907082782E+000  0.121903164908410E+001  0.305100625888521E+001  0.878976825967771E+000  0.100000000000000E+001 -0.655108033504341E+001 -0.140081469368185E+001
  0.214994900275465E+000  0.118398647115912E+002  0.127302997247000E+001  0.218541014563579E+001  0.250531725731824E+001  0.546046998380451E+000  0.100000000000000E+001 -0.655108033504341E+001 -0.139447269686718E+001
  0.214994900275465E+000  0.117871958195229E+002  0.113208327996059E+001  0.211771007686657E+001  0.358032029960241E+001  0.360437059528781E+000  0.100000000000000E+001 -0.655108033504341E+001 -0.146635305281957E+001
  0.214994900275465E+000  0.117602271297649E+002  0.108349250491069E+001  0.225601302345582E+001  0.270886277952479E+001  0.191699064633305E+000  0.100000000000000E+001 -0.655108033504341E+001 -0.395934917091030E+000
  0.214994900275465E+000  0.117449768391704E+002  0.109389384469434E+001  0.151301515137699E+001  0.306349782493536E+001  0.412879757105038E-001  0.100000000000000E+001 -0.655108033504341E+001 -0.636559438774472E+000
  0.214994900275465E+000  0.117145502172786E+002  0.799407894645446E+000  0.205399041820695E+001  0.366994998660033E+001  0.935866074137117E+000  0.100000000000000E+001 -0.655108033504341E+001 -0.205984920766833E+001
  0.214994900275465E+000  0.116965005659904E+002  0.136148245139131E+001  0.187842639021549E+001  0.318599652221860E+001  0.344644088556361E+000  0.100000000000000E+001 -0.655108033504341E+001 -0.852900006667290E+000
  0.214994900275465E+000  0.116769822033670E+002  0.687167951079791E+000  0.200389049703628E+001  0.271149369898245E+001  0.420245147371421E+000  0.100000000000000E+001 -0.655108033504341E+001 -0.720358043008881E+000
  0.214994900275465E+000  0.116626376328974E+002  0.616408804158624E+000  0.159532159092880E+001  0.323453638149276E+001  0.491435444428639E+000  0.100000000000000E+001 -0.655108033504341E+001 -0.879750393209097E+000
  0.214994900275465E+000  0.116381259647686E+002  0.109514024147572E+001  0.216001372656504E+001  0.356394810614148E+001  0.629921276185800E+000  0.100000000000000E+001 -0.655108033504341E+001 -0.123691808249546E+001
  0.214994900275465E+000  0.116180376806114E+002  0.135473224217337E+001  0.246659017763284E+001  0.285124603867067E+001  0.331373651738309E+000  0.100000000000000E+001 -0.655108033504341E+001 -0.686169751622190E+000
  0.214994900275465E+000  0.115926548503842E+002  0.138886642519729E+001  0.227867181787289E+001  0.349407999494727E+001  0.177713299011142E+000  0.100000000000000E+001 -0.655108033504341E+001 -0.157067884878129E+001
  0.214994900275465E+000  0.115710945903308E+002  0.134546239083684E+001  0.212756084808569E+001  0.332467455631595E+001  0.165451090730800E+000  0.100000000000000E+001 -0.655108033504341E+001 -0.772991051307973E+000
  0.214994900275465E+000  0.115560252454114E+002  0.863911590881542E+000  0.230869490727804E+001  0.294544432871807E+001  0.890506160266198E+000  0.100000000000000E+001 -0.655108033504341E+001 -0.157251375502882E+000
  0.214994900275465E+000  0.115386072413917E+002  0.115831780290154E+001  0.213565368235753E+001  0.341521270231303E+001  0.424447163108849E+000  0.100000000000000E+001 -0.655108033504341E+001 -0.569116777443155E+000
  0.214994900275465E+000  0.115200263101397E+002  0.114832540501308E+001  0.187762506853858E+001  0.314665242577543E+001  0.238273706787001E+000  0.100000000000000E+001 -0.655108033504341E+001  0.340377008999342E-001
  0.214994900275465E+000  0.115132564469361E+002  0.138363792545263E+001  0.277365726903966E+001  0.306987966089713E+001  0.325282023808713E+000  0.100000000000000E+001 -0.655108033504341E+001 -0.126296978145123E+001
  0.214994900275465E+000  0.115097700058242E+002  0.177376052791379E+001  0.198186064529998E+001  0.301022305667821E+001  0.107340030041198E+000  0.100000000000000E+001 -0.655108033504341E+001 -0.306041170052431E+001
  0.214994900275465E+000  0.115008114788455E+002  0.129307935890406E+001  0.217492818966185E+001  0.271855990831320E+001  0.302486249453726E+000  0.100000000000000E+001 -0.655108033504341E+001 -0.426516372399854E+000
  0.214994900275465E+000  0.114904371914118E+002  0.931722055037830E+000  0.205232657716330E+001  0.278704967132190E+001  0.159930172686240E-001  0.100000000000000E+001 -0.655108033504341E+001  0.120193820853015E+000
  0.214994900275465E+000  0.114895413081802E+002  0.426015148789424E+000  0.186071327211776E+001  0.349621730750049E+001  0.241022731038124E+000  0.100000000000000E+001 -0.655108033504341E+001 -0.241772415451833E+001
  0.214994900275465E+000  0.114418327715986E+002  0.654579045406578E+000  0.178802446420993E+001  0.270278337758251E+001  0.750569068828205E+000  0.100000000000000E+001 -0.655108033504341E+001 -0.583790453125778E+000
  0.214994900275465E+000  0.114320575856634E+002  0.985893588382905E+000  0.206581132982313E+001  0.283714479360017E+001  0.410476459649055E+000  0.100000000000000E+001 -0.655108033504341E+001  0.281371893304324E+000
  0.214994900275465E+000  0.114315896435123E+002  0.997493467295978E+000  0.200640878615733E+001  0.324633012645392E+001  0.493483242333405E+000  0.100000000000000E+001 -0.655108033504341E+001  0.146435598015175E+000
  0.214994900275465E+000  0.114214272025047E+002  0.146517590770036E+001  0.232698714541246E+001  0.286945748756988E+001  0.384562317304186E+000  0.100000000000000E+001 -0.655108033504341E+001 -0.757802550437179E+000
  0.214994900275465E+000  0.114163521938561E+002  0.120607559982839E+001  0.167487330030038E+001  0.293721714839076E+001  0.370249987353625E+000  0.100000000000000E+001 -0.655108033504341E+001 -0.262477617681113E+000
  0.214994900275465E+000  0.114163143518859E+002  0.131092731254640E+001  0.191635310135149E+001  0.302545833226088E+001  0.342317908005970E+000  0.100000000000000E+001 -0.655108033504341E+001 -0.203700933019956E+000
  0.214994900275465E+000  0.114150525225183E+002  0.109544670922929E+001  0.188733180288159E+001  0.256100788101214E+001  0.232270083744640E-001  0.100000000000000E+001 -0.655108033504341E+001 -0.526435764483288E+000
  0.214994900275465E+000  0.114140210533985E+002  0.658000856517065E+000  0.170602548275547E+001  0.309813593413258E+001  0.648178898222631E+000  0.100000000000000E+001 -0.655108033504341E+001 -0.237303438617195E+000
  0.214994900275465E+000  0.114000430551632E+002  0.144517382099789E+001  0.236905654112755E+001  0.293667384343462E+001  0.188776181140202E+000  0.100000000000000E+001 -0.655108033504341E+001 -0.622391052493291E+000
  0.214994900275465E+000  0.113914352888118E+002  0.972783688493725E+000  0.192151828705194E+001  0.273771672363563E+001  0.531572593678446E+000  0.100000000000000E+001 -0.655108033504341E+001  0.132025067268340E+000
  0.214994900275465E+000  0.113879515304225E+002  0.934148659618556E+000  0.194987107635762E+001  0.280588971919172E+001  0.158954575360684E+000  0.100000000000000E+001 -0.655108033504341E+001  0.262999072262558E+000
  0.214994900275465E+000  0.113766779173907E+002  0.725316773990129E+000  0.181741566153909E+001  0.279032299861804E+001  0.305289923794563E+000  0.100000000000000E+001 -0.655108033504341E+001 -0.114585966728502E+000
  0.214994900275465E+000  0.113756546247423E+002  0.775910772717787E+000  0.193582006595301E+001  0.289811313475407E+001  0.312086105685367E+000  0.100000000000000E+001 -0.655108033504341E+001  0.158801433555383E+000
  0.214994900275465E+000  0.113707155969096E+002  0.144903826708481E+001  0.215207635286109E+001  0.307125125553124E+001  0.524033681710538E+000  0.100000000000000E+001 -0.655108033504341E+001 -0.578160317464390E+000
  0.214994900275465E+000  0.113689763854563E+002  0.125559517551134E+001  0.190628696760712E+001  0.298110825554464E+001  0.453329440582339E+000  0.100000000000000E+001 -0.655108033504341E+001  0.159956693542871E-001
  0.214994900275465E+000  0.113689058753601E+002  0.485025606302737E+000  0.171098501183028E+001  0.310367528856819E+001  0.605856000003148E+000  0.100000000000000E+001 -0.655108033504341E+001 -0.908572458473637E+000
  0.214994900275465E+000  0.113685409733069E+002  0.125655937098935E+001  0.229526810124011E+001  0.338846947572944E+001  0.854429544336587E-001  0.100000000000000E+001 -0.655108033504341E+001 -0.591801276486898E+000
  0.214994900275465E+000  0.113661657805106E+002  0.170087416972482E+001  0.241994059645404E+001  0.322328260986443E+001  0.623148252131553E+000  0.100000000000000E+001 -0.655108033504341E+001 -0.221698778787901E+001
  0.214994900275465E+000  0.113635459898289E+002  0.566368821562094E+000  0.153200796578917E+001  0.296178531206455E+001  0.630922067036896E+000  0.100000000000000E+001 -0.655108033504341E+001 -0.632672546114816E+000
  0.214994900275465E+000  0.113586504082516E+002  0.679807925753464E+000  0.186151910556715E+001  0.313862295799077E+001  0.113278234912843E+000  0.100000000000000E+001 -0.655108033504341E+001 -0.121950093628809E+000
  0.214994900275465E+000  0.113583625634703E+002  0.160518225598364E+001  0.240976100037472E+001  0.297791144369289E+001  0.894002960241252E+000  0.100000000000000E+001 -0.655108033504341E+001 -0.138591980185312E+001
  0.214994900275465E+000  0.113506366605697E+002  0.106179804557903E+001  0.241451135200152E+001  0.309791059037158E+001  0.336781363360155E+000  0.100000000000000E+001 -0.655108033504341E+001  0.539843070240567E-001
  0.214994900275465E+000  0.113500859561383E+002  0.261325765283440E+000  0.198235152192030E+001  0.308829575631372E+001  0.577531353281944E+000  0.100000000000000E+001 -0.655108033504341E+001 -0.258812040810032E+001
  0.214994900275465E+000  0.113487225197674E+002  0.150719401540742E+001  0.216285902516161E+001  0.278348644156433E+001  0.163856277529504E+000  0.100000000000000E+001 -0.655108033504341E+001 -0.102731299289146E+001
  0.214994900275465E+000  0.113469662935454E+002  0.110238868626487E+001  0.239324001697724E+001  0.308828794015258E+001  0.644654466469609E-001  0.100000000000000E+001 -0.655108033504341E+001  0.107120384871859E+000
  0.214994900275465E+000  0.113417005440615E+002  0.189103041359134E+001  0.249739053143206E+001  0.299264021818626E+001  0.915256904621342E+000  0.100000000000000E+001 -0.655108033504341E+001 -0.348590527575607E+001
  0.214994900275465E+000  0.113412886328199E+002  0.849324521189270E+000  0.166546330012859E+001  0.293087870450896E+001  0.222956844796312E+000  0.100000000000000E+001 -0.655108033504341E+001  0.188717313657213E+000
  0.214994900275465E+000  0.113383380402924E+002  0.142616247289434E+001  0.213383116950819E+001  0.283828518530738E+001  0.177110921253568E+000  0.100000000000000E+001 -0.655108033504341E+001 -0.544509798960093E+000
  0.214994900275465E+000  0.113374262832435E+002  0.570970822989870E+000  0.169500463139764E+001  0.281968573129124E+001  0.320842823136679E+000  0.100000000000000E+001 -0.655108033504341E+001 -0.588567214462074E+000
  0.214994900275465E+000  0.113370937625465E+002  0.101090657111560E+001  0.204583144817612E+001  0.307611891250608E+001  0.398310736595868E+000  0.100000000000000E+001 -0.655108033504341E+001  0.464746353819232E+000
  0.214994900275465E+000  0.113355682317814E+002  0.102736452568883E+001  0.196188752437946E+001  0.291330789819168E+001  0.138289496774524E+000  0.100000000000000E+001 -0.655108033504341E+001  0.452769862507377E+000
  0.214994900275465E+000  0.113341695155061E+002  0.839005006950770E+000  0.152806798869560E+001  0.288508644760624E+001  0.160927777307741E-001  0.100000000000000E+001 -0.655108033504341E+001 -0.730968419602437E-001
  0.214994900275465E+000  0.113316831163741E+002  0.869029885582536E+000  0.200577649891723E+001  0.309504497227692E+001  0.246415153534389E+000  0.100000000000000E+001 -0.655108033504341E+001  0.361517419548513E+000
  0.214994900275465E+000  0.113280617448291E+002  0.960568961127412E+000  0.241533070632485E+001  0.313204737162753E+001  0.435087566286159E+000  0.100000000000000E+001 -0.655108033504341E+001 -0.545525400426303E-001
  0.214994900275465E+000  0.113238090536751E+002  0.140715798639233E+001  0.208928389069998E+001  0.290580858093027E+001  0.300576628778904E+000  0.100000000000000E+001 -0.655108033504341E+001 -0.393971288772053E+000
  0.214994900275465E+000  0.113193896913767E+002  0.461149006407863E+000  0.223247693134202E+001  0.315628767432441E+001  0.361437155729513E+000  0.100000000000000E+001 -0.655108033504341E+001 -0.167817281113476E+001
  0.214994900275465E+000  0.113187804269487E+002  0.147468457056246E+001  0.255111239203791E+001  0.360566595674946E+001  0.941370909549229E+000  0.100000000000000E+001 -0.655108033504341E+001 -0.246685271357770E+001
  0.214994900275465E+000  0.113151315344472E+002  0.115483917671580E+001  0.183412707337706E+001  0.289518713461984E+001  0.949104099978199E-001  0.100000000000000E+001 -0.655108033504341E+001  0.198066627472455E+000
  0.214994900275465E+000  0.113140120024306E+002  0.781553714924337E+000  0.202961160921874E+001  0.315509917928118E+001  0.255507934893375E+000  0.100000000000000E+001 -0.655108033504341E+001  0.122937241119094E+000
  0.214994900275465E+000  0.113017082819879E+002  0.155617940508892E+001  0.210685077436545E+001  0.280783063142430E+001  0.817340530494726E-001  0.100000000000000E+001 -0.655108033504341E+001 -0.125582069974578E+001
  0.214994900275465E+000  0.112969781831816E+002  0.143582107786165E+001  0.294728027528375E+001  0.322819464841268E+001  0.177990307501684E+000  0.100000000000000E+001 -0.655108033504341E+001 -0.197760169870268E+001
  0.214994900275465E+000  0.117994860271629E+002  0.838650832528837E+000  0.224327942254158E+001  0.314370778651497E+001  0.439603548831169E+000  0.100000000000000E+001 -0.655108033504341E+001  0.490538537978512E-001
  0.214994900275465E+000  0.117972206477976E+002  0.940851917833156E+000  0.226449989197965E+001  0.314533039531729E+001  0.749996426409896E-001  0.100000000000000E+001 -0.655108033504341E+001  0.207826294976201E+000
  0.214994900275465E+000  0.117898636021828E+002  0.125030117148796E+001  0.268541606008169E+001  0.319414708663004E+001  0.344893793023561E+000  0.100000000000000E+001 -0.655108033504341E+001 -0.722545235868018E+000
  0.214994900275465E+000  0.117840847985047E+002  0.109716574147424E+001  0.227501206963391E+001  0.331013343462576E+001  0.295603416469186E+000  0.100000000000000E+001 -0.655108033504341E+001 -0.507655030481199E-001
  0.214994900275465E+000  0.117429013339274E+002  0.110290635675180E+001  0.236612865702629E+001  0.347368816214286E+001  0.246353685728892E-001  0.100000000000000E+001 -0.655108033504341E+001 -0.700713901745066E+000
  0.214994900275465E+000  0.117427931682781E+002  0.683747884371281E+000  0.220921711941483E+001  0.361815138049032E+001  0.496349988473455E+000  0.100000000000000E+001 -0.655108033504341E+001 -0.192762016351715E+001
  0.214994900275465E+000  0.117373457798326E+002  0.142421146392109E+001  0.282138417215270E+001  0.323843233223884E+001  0.274169592531376E+000  0.100000000000000E+001 -0.655108033504341E+001 -0.149023400496945E+001
  0.214994900275465E+000  0.116654342658725E+002  0.787611259968687E+000  0.236234152313423E+001  0.330081308449818E+001  0.308709083392550E+000  0.100000000000000E+001 -0.655108033504341E+001 -0.521012237345892E+000
  0.214994900275465E+000  0.115973506249371E+002  0.138023223998978E+001  0.264906153463100E+001  0.361213551199470E+001  0.499933058926500E+000  0.100000000000000E+001 -0.655108033504341E+001 -0.218000798274326E+001
  0.214994900275465E+000  0.115578033933789E+002  0.979679228250313E+000  0.248982730509534E+001  0.345798938814679E+001  0.458327691115605E+000  0.100000000000000E+001 -0.655108033504341E+001 -0.801297262498585E+000
  0.214994900275465E+000  0.114950702907050E+002  0.771075063707888E+000  0.247985232065451E+001  0.345324733771632E+001  0.119360449582136E+000  0.100000000000000E+001 -0.655108033504341E+001 -0.124552525780845E+001
  0.214994900275465E+000  0.114279429754677E+002  0.869485662696101E+000  0.252417449256492E+001  0.375450052237750E+001  0.566008087733842E+000  0.100000000000000E+001 -0.655108033504341E+001 -0.258726548845231E+001
  0.214994900275465E+000  0.112867107502387E+002  0.443562537483831E+000  0.245036940805611E+001  0.359486837445452E+001  0.851386025831077E-001  0.100000000000000E+001 -0.655108033504341E+001 -0.344277144526563E+001
  0.214994900275465E+000  0.112201162887003E+002  0.829457672205302E+000  0.273413841277151E+001  0.359022310574621E+001  0.331125381657894E-001  0.100000000000000E+001 -0.655108033504341E+001 -0.230920524066249E+001
  0.214994900275465E+000  0.111105137396175E+002  0.126809480230948E+001  0.345830707824822E+001  0.359190123426881E+001  0.740883774143409E+000  0.100000000000000E+001 -0.655108033504341E+001 -0.514151172759491E+001
  0.214994900275465E+000  0.110771494778047E+002  0.129273546985075E+001  0.324520333968936E+001  0.360166609134031E+001  0.961550540217106E-001  0.100000000000000E+001 -0.655108033504341E+001 -0.386684483246534E+001
  0.214994900275465E+000  0.108031690281118E+002  0.808124586476109E+000  0.308936765386348E+001  0.371539492146851E+001  0.442036222276656E-002  0.100000000000000E+001 -0.655108033504341E+001 -0.453181697394076E+001
  0.214994900275465E+000  0.618581110422823E+001  0.130001368962093E+000  0.130354770743496E+001  0.309102353726448E+001  0.770838502243204E+000  0.000000000000000E+000 -0.655108033504341E+001 -0.364567620952807E+001
  0.214994900275465E+000  0.440171355430849E+001  0.152529498829600E+001  0.304376328950098E+001  0.336957281856441E+001  0.857147774240603E+000  0.000000000000000E+000 -0.655108033504341E+001 -0.275362743456820E+001
  0.214994900275465E+000  0.411260917737246E+001  0.165873811578754E+001  0.243904922382140E+001  0.263868586758364E+001  0.313842332427565E+000  0.000000000000000E+000 -0.655108033504341E+001 -0.260907524610019E+001
  0.214994900275465E+000  0.398846863334075E+001  0.152391654292673E+001  0.276990469846161E+001  0.354478201542005E+001  0.742711754018508E+000  0.000000000000000E+000 -0.655108033504341E+001 -0.254700497408433E+001
  0.214994900275465E+000  0.210125754113306E+001  0.389648624352706E+000  0.141927723761185E+001  0.297705695162088E+001  0.861521752463716E+000  0.000000000000000E+000 -0.655108033504341E+001 -0.160339942798049E+001
  0.214994900275465E+000  0.120981891110582E+001  0.121146539975560E+001  0.166601587424100E+001  0.248684915605653E+001  0.625986506342177E+000  0.000000000000000E+000 -0.655108033504341E+001 -0.115768011296687E+001
  0.214994900275465E+000  0.235404983498899E+000  0.752030072530139E+000  0.177241172793998E+001  0.259394424204517E+001  0.634545476175617E+000  0.000000000000000E+000 -0.655108033504341E+001 -0.670473149163408E+000
  0.214994900275465E+000  0.186932799513519E+000  0.133462400583341E+001  0.243896007054319E+001  0.332941781017821E+001  0.794712035358721E+000  0.000000000000000E+000 -0.655108033504341E+001 -0.646237057170718E+000
  0.214994900275465E+000  0.140063477480048E-001  0.140517409774212E+001  0.248832096063817E+001  0.308255238453488E+001  0.695756777053941E+000  0.000000000000000E+000 -0.655108033504341E+001 -0.559773831287961E+000
  0.214994900275465E+000 -0.819779157368393E+000  0.102217178230244E+001  0.172479844681873E+001  0.265615241495185E+001  0.669192531451644E+000  0.000000000000000E+000 -0.655108033504341E+001 -0.142881078729763E+000
  0.214994900275465E+000 -0.100580502688498E+001  0.122510684659835E+001  0.190411241294531E+001  0.308822066072887E+001  0.913612438936841E+000  0.000000000000000E+000 -0.655108033504341E+001 -0.105576666635031E-001
  0.214994900275465E+000 -0.120437655797622E+001  0.952543064672196E+000  0.217706224823031E+001  0.327612476818205E+001  0.450716663258207E+000  0.000000000000000E+000 -0.655108033504341E+001  0.887280988821160E-001
  0.214994900275465E+000 -0.132855709151029E+001  0.109099333031318E+001  0.225104854235700E+001  0.323506972259521E+001  0.860991852118459E+000  0.000000000000000E+000 -0.655108033504341E+001  0.150818365649150E+000
  0.214994900275465E+000 -0.134678783437769E+001  0.815628103021724E+000  0.187162163611824E+001  0.315563085025893E+001  0.593603998631470E+000  0.000000000000000E+000 -0.655108033504341E+001  0.159933737082850E+000
